{"learner":{"attributes":{},"feature_names":["bmi","dbp","hdl","hf","hgt","ldl","sbp","smk_cur","t1d","wgt","sex","age"],"feature_types":["float","float","float","int","float","float","float","int","int","float","int","int"],"gradient_booster":{"model":{"gbtree_model_param":{"num_parallel_tree":"1","num_trees":"153"},"iteration_indptr":[0,1,2,3,4,5,6,7,8,9,10,11,12,13,14,15,16,17,18,19,20,21,22,23,24,25,26,27,28,29,30,31,32,33,34,35,36,37,38,39,40,41,42,43,44,45,46,47,48,49,50,51,52,53,54,55,56,57,58,59,60,61,62,63,64,65,66,67,68,69,70,71,72,73,74,75,76,77,78,79,80,81,82,83,84,85,86,87,88,89,90,91,92,93,94,95,96,97,98,99,100,101,102,103,104,105,106,107,108,109,110,111,112,113,114,115,116,117,118,119,120,121,122,123,124,125,126,127,128,129,130,131,132,133,134,135,136,137,138,139,140,141,142,143,144,145,146,147,148,149,150,151,152,153],"tree_info":[0,0,0,0,0,0,0,0,0,0,0,0,0,0,0,0,0,0,0,0,0,0,0,0,0,0,0,0,0,0,0,0,0,0,0,0,0,0,0,0,0,0,0,0,0,0,0,0,0,0,0,0,0,0,0,0,0,0,0,0,0,0,0,0,0,0,0,0,0,0,0,0,0,0,0,0,0,0,0,0,0,0,0,0,0,0,0,0,0,0,0,0,0,0,0,0,0,0,0,0,0,0,0,0,0,0,0,0,0,0,0,0,0,0,0,0,0,0,0,0,0,0,0,0,0,0,0,0,0,0,0,0,0,0,0,0,0,0,0,0,0,0,0,0,0,0,0,0,0,0,0,0,0],"trees":[{"base_weights":[5.4007784E-2,-6.3381624E-1,6.2269753E-1,3.4427333E-3,-9.513561E-1,2.9773307E-1,8.100722E-2,-2.9012933E-2,-7.2196595E-2,5.7916798E-2,-2.0972388E-3,2.3472078E-2,-2.3716448E-2],"categories":[],"categories_nodes":[],"categories_segments":[],"categories_sizes":[],"default_left":[0,0,0,0,0,0,0,0,0,0,0,0,0],"id":0,"left_children":[1,3,5,-1,7,9,-1,-1,-1,-1,11,-1,-1],"loss_changes":[4.536088E1,1.1581427E1,1.4558397E1,0E0,3.647747E0,9.011995E0,0E0,0E0,0E0,0E0,5.105715E0,0E0,0E0],"parents":[2147483647,0,0,1,1,2,2,4,4,5,5,10,10],"right_children":[2,4,6,-1,8,10,-1,-1,-1,-1,12,-1,-1],"split_conditions":[4E0,6.9E1,5E0,3.4427333E-3,1.029E2,3.74E1,8.100722E-2,-2.9012933E-2,-7.2196595E-2,5.7916798E-2,7E1,2.3472078E-2,-2.3716448E-2],"split_indices":[11,9,11,0,5,2,0,0,0,0,9,0,0],"split_type":[0,0,0,0,0,0,0,0,0,0,0,0,0],"sum_hessian":[1.1395649E2,5.1524117E1,6.2432373E1,1.6478434E1,3.504568E1,4.4097214E1,1.8335157E1,1.3229165E1,2.1816517E1,1.2997074E1,3.1100142E1,1.5550071E1,1.5550071E1],"tree_param":{"num_deleted":"0","num_feature":"12","num_nodes":"13","size_leaf_vector":"1"}},{"base_weights":[-4.9127527E-2,-5.9559834E-1,3.9977536E-1,-4.660825E-3,-8.145081E-1,7.958708E-1,4.931737E-2,-7.0622794E-2,-3.3151932E-2,2.5965903E-2,7.135352E-2,1.9157277E-2,-1.6913429E-2],"categories":[],"categories_nodes":[],"categories_segments":[],"categories_sizes":[],"default_left":[0,0,0,0,0,0,0,0,0,0,0,0,0],"id":1,"left_children":[1,3,5,-1,7,9,11,-1,-1,-1,-1,-1,-1],"loss_changes":[2.9177437E1,6.01548E0,9.034352E0,0E0,2.914957E0,3.8498306E0,3.2779925E0,0E0,0E0,0E0,0E0,0E0,0E0],"parents":[2147483647,0,0,1,1,2,2,4,4,5,5,6,6],"right_children":[2,4,6,-1,8,10,12,-1,-1,-1,-1,-1,-1],"split_conditions":[4E0,6.9E1,4.3E1,-4.660825E-3,1.34E2,1.021E2,1.61E2,-7.0622794E-2,-3.3151932E-2,2.5965903E-2,7.135352E-2,1.9157277E-2,-1.6913429E-2],"split_indices":[11,9,2,0,6,5,4,0,0,0,0,0,0],"split_type":[0,0,0,0,0,0,0,0,0,0,0,0,0],"sum_hessian":[1.1696934E2,5.260454E1,6.43648E1,1.602897E1,3.6575573E1,2.9618435E1,3.474636E1,1.3938902E1,2.263667E1,1.645328E1,1.3165154E1,1.9166336E1,1.5580025E1],"tree_param":{"num_deleted":"0","num_feature":"12","num_nodes":"13","size_leaf_vector":"1"}},{"base_weights":[3.19565E-2,-5.544568E-1,5.038016E-1,1.0151985E-2,-7.765888E-1,3.106222E-1,5.816579E-2,-1.85141E-2,-9.662235E-1,3.9350737E-2,-3.4082076E-3,-7.99786E-2,-3.3436093E-2],"categories":[],"categories_nodes":[],"categories_segments":[],"categories_sizes":[],"default_left":[0,0,0,0,0,0,0,0,0,0,0,0,0],"id":2,"left_children":[1,3,5,-1,7,9,-1,-1,11,-1,-1,-1,-1],"loss_changes":[3.247861E1,8.545851E0,5.5315647E0,0E0,3.2765865E0,6.0320935E0,0E0,0E0,3.4729176E0,0E0,0E0,0E0,0E0],"parents":[2147483647,0,0,1,1,2,2,4,4,5,5,8,8],"right_children":[2,4,6,-1,8,10,-1,-1,12,-1,-1,-1,-1],"split_conditions":[4E0,8.54E1,5E0,1.0151985E-2,6.9E1,7E1,5.816579E-2,-1.85141E-2,1.38E2,3.9350737E-2,-3.4082076E-3,-7.99786E-2,-3.3436093E-2],"split_indices":[11,5,11,0,9,9,0,0,6,0,0,0,0],"split_type":[0,0,0,0,0,0,0,0,0,0,0,0,0],"sum_hessian":[1.153705E2,5.1362118E1,6.400838E1,1.2122023E1,3.9240093E1,4.6383575E1,1.7624802E1,1.2064774E1,2.717532E1,2.3535378E1,2.28482E1,1.3179491E1,1.399583E1],"tree_param":{"num_deleted":"0","num_feature":"12","num_nodes":"13","size_leaf_vector":"1"}},{"base_weights":[-3.4526765E-2,-7.162637E-1,4.9912935E-1,-1.4150442E-2,-9.297068E-1,2.3384963E-1,6.5765835E-2,-2.4106652E-2,-7.257783E-2,4.6542432E-2,6.1239554E-3,1.8151226E-2,-2.0751616E-2],"categories":[],"categories_nodes":[],"categories_segments":[],"categories_sizes":[],"default_left":[0,0,0,0,0,0,0,0,0,0,0,0,0],"id":3,"left_children":[1,3,5,-1,7,9,-1,-1,-1,-1,11,-1,-1],"loss_changes":[4.273834E1,5.071314E0,1.0161188E1,0E0,4.718443E0,5.7704453E0,0E0,0E0,0E0,0E0,3.6429126E0,0E0,0E0],"parents":[2147483647,0,0,1,1,2,2,4,4,5,5,10,10],"right_children":[2,4,6,-1,8,10,-1,-1,-1,-1,12,-1,-1],"split_conditions":[4E0,2.56E1,5E0,-1.4150442E-2,9.6E1,3.74E1,6.5765835E-2,-2.4106652E-2,-7.257783E-2,4.6542432E-2,7E1,1.8151226E-2,-2.0751616E-2],"split_indices":[11,0,11,0,5,2,0,0,0,0,9,0,0],"split_type":[0,0,0,0,0,0,0,0,0,0,0,0,0],"sum_hessian":[1.1549067E2,5.0559525E1,6.4931145E1,1.6193054E1,3.436647E1,4.5886173E1,1.9044975E1,1.2701139E1,2.166533E1,1.2883469E1,3.3002705E1,1.7992756E1,1.5009948E1],"tree_param":{"num_deleted":"0","num_feature":"12","num_nodes":"13","size_leaf_vector":"1"}},{"base_weights":[-5.367786E-2,-4.1446093E-1,5.22256E-1,1.3179393E-1,-8.468389E-1,5.7448253E-2,3.075659E-1,3.160572E-2,-1.3077793E-2,-1.8869555E-2,-6.636985E-2,3.5218563E-2,-1.0023608E-3],"categories":[],"categories_nodes":[],"categories_segments":[],"categories_sizes":[],"default_left":[0,0,0,0,0,0,0,0,0,0,0,0,0],"id":4,"left_children":[1,3,5,7,9,-1,11,-1,-1,-1,-1,-1,-1],"loss_changes":[2.3364454E1,1.642103E1,3.7452297E0,4.4380603E0,4.968113E0,0E0,2.7637773E0,0E0,0E0,0E0,0E0,0E0,0E0],"parents":[2147483647,0,0,1,1,2,2,3,3,4,4,6,6],"right_children":[2,4,6,8,10,-1,12,-1,-1,-1,-1,-1,-1],"split_conditions":[1E0,2.6E1,8E1,1E0,1.57E2,5.7448253E-2,7.1E1,3.160572E-2,-1.3077793E-2,-1.8869555E-2,-6.636985E-2,3.5218563E-2,-1.0023608E-3],"split_indices":[3,0,5,10,4,0,9,0,0,0,0,0,0],"split_type":[0,0,0,0,0,0,0,0,0,0,0,0,0],"sum_hessian":[1.1040244E2,6.805255E1,4.2349888E1,3.0374016E1,3.767854E1,1.2872463E1,2.9477425E1,1.4034284E1,1.6339731E1,1.3015418E1,2.466312E1,1.5418207E1,1.40592165E1],"tree_param":{"num_deleted":"0","num_feature":"12","num_nodes":"13","size_leaf_vector":"1"}},{"base_weights":[-1.9889623E-2,-5.818661E-1,4.160731E-1,-3.4562014E-3,-7.5728935E-1,8.2072325E-2,7.328922E-1,-1.419456E-2,-6.1653882E-2,-2.1389604E-2,2.2292305E-2,2.9094573E-2,6.214106E-2],"categories":[],"categories_nodes":[],"categories_segments":[],"categories_sizes":[],"default_left":[0,0,0,0,0,0,0,0,0,0,0,0,0],"id":5,"left_children":[1,3,5,-1,7,9,11,-1,-1,-1,-1,-1,-1],"loss_changes":[2.841544E1,4.6155224E0,6.8539658E0,0E0,5.0652866E0,4.3021092E0,2.0028152E0,0E0,0E0,0E0,0E0,0E0,0E0],"parents":[2147483647,0,0,1,1,2,2,4,4,5,5,6,6],"right_children":[2,4,6,-1,8,10,12,-1,-1,-1,-1,-1,-1],"split_conditions":[4E0,8.64E1,1E0,-3.4562014E-3,2.6E1,7.4E1,7.4E1,-1.419456E-2,-6.1653882E-2,-2.1389604E-2,2.2292305E-2,2.9094573E-2,6.214106E-2],"split_indices":[11,5,3,0,0,1,1,0,0,0,0,0,0],"split_type":[0,0,0,0,0,0,0,0,0,0,0,0,0],"sum_hessian":[1.1399284E2,4.9653053E1,6.433979E1,1.2780499E1,3.6872555E1,3.1933516E1,3.2406277E1,1.3194628E1,2.3677927E1,1.2600094E1,1.9333422E1,1.9190264E1,1.3216014E1],"tree_param":{"num_deleted":"0","num_feature":"12","num_nodes":"13","size_leaf_vector":"1"}},{"base_weights":[2.3364327E-3,-5.230103E-1,4.1452476E-1,-3.4646625E-3,-7.6826274E-1,1.8723637E-1,5.546874E-2,-2.6648518E-2,-6.0405657E-2,3.507658E-2,-8.621456E-2,1.2472925E-2,-2.3390925E-2],"categories":[],"categories_nodes":[],"categories_segments":[],"categories_sizes":[],"default_left":[0,0,0,0,0,0,0,0,0,0,0,0,0],"id":6,"left_children":[1,3,5,-1,7,9,-1,-1,-1,-1,11,-1,-1],"loss_changes":[2.4897411E1,5.724942E0,7.2774544E0,0E0,2.0976486E0,5.0164037E0,0E0,0E0,0E0,0E0,2.5725746E0,0E0,0E0],"parents":[2147483647,0,0,1,1,2,2,4,4,5,5,10,10],"right_children":[2,4,6,-1,8,10,-1,-1,-1,-1,12,-1,-1],"split_conditions":[4E0,2.6E1,5E0,-3.4646625E-3,1.029E2,4.11E1,5.546874E-2,-2.6648518E-2,-6.0405657E-2,3.507658E-2,7E1,1.2472925E-2,-2.3390925E-2],"split_indices":[11,0,11,0,5,2,0,0,0,0,9,0,0],"split_type":[0,0,0,0,0,0,0,0,0,0,0,0,0],"sum_hessian":[1.1297619E2,4.9551903E1,6.342429E1,1.7528595E1,3.2023308E1,4.478586E1,1.8638428E1,1.4731955E1,1.7291353E1,1.781284E1,2.697302E1,1.3856862E1,1.3116158E1],"tree_param":{"num_deleted":"0","num_feature":"12","num_nodes":"13","size_leaf_vector":"1"}},{"base_weights":[5.6354003E-3,-5.593731E-1,4.4596842E-1,-2.1251717E-3,-7.1926117E-1,2.6900518E-1,4.9415767E-2,-1.5245535E-2,-5.739335E-2,3.9395966E-2,-2.9650372E-2,1.526524E-2,-1.8535534E-2],"categories":[],"categories_nodes":[],"categories_segments":[],"categories_sizes":[],"default_left":[0,0,0,0,0,0,0,0,0,0,0,0,0],"id":7,"left_children":[1,3,5,-1,7,9,-1,-1,-1,-1,11,-1,-1],"loss_changes":[2.905588E1,4.260519E0,4.152504E0,0E0,4.0596657E0,5.348546E0,0E0,0E0,0E0,0E0,2.2142434E0,0E0,0E0],"parents":[2147483647,0,0,1,1,2,2,4,4,5,5,10,10],"right_children":[2,4,6,-1,8,10,-1,-1,-1,-1,12,-1,-1],"split_conditions":[4E0,8.7E1,5E0,-2.1251717E-3,2.6E1,4.3E1,4.9415767E-2,-1.5245535E-2,-5.739335E-2,3.9395966E-2,6.8E1,1.526524E-2,-1.8535534E-2],"split_indices":[11,5,11,0,0,2,0,0,0,0,9,0,0],"split_type":[0,0,0,0,0,0,0,0,0,0,0,0,0],"sum_hessian":[1.14785194E2,5.0156757E1,6.462844E1,1.20118475E1,3.8144913E1,4.513432E1,1.9494122E1,1.353498E1,2.4609932E1,1.9144861E1,2.5989456E1,1.2926449E1,1.3063007E1],"tree_param":{"num_deleted":"0","num_feature":"12","num_nodes":"13","size_leaf_vector":"1"}},{"base_weights":[1.4508905E-2,-2.4591124E-1,3.972102E-1,2.5336888E-1,-6.237119E-1,5.4412264E-2,1.778515E-1,-6.5653883E-3,3.4542263E-2,-1.2319416E-2,-8.13717E-1,-1.2552213E-2,4.1469164E-2,-3.194529E-2,-6.051345E-2],"categories":[],"categories_nodes":[],"categories_segments":[],"categories_sizes":[],"default_left":[0,0,0,0,0,0,0,0,0,0,0,0,0,0,0],"id":8,"left_children":[1,3,5,7,9,-1,11,-1,-1,-1,13,-1,-1,-1,-1],"loss_changes":[1.1732952E1,1.3378899E1,5.1550236E0,3.6671438E0,3.029827E0,0E0,6.990154E0,0E0,0E0,0E0,9.547405E-1,0E0,0E0,0E0,0E0],"parents":[2147483647,0,0,1,1,2,2,3,3,4,4,6,6,10,10],"right_children":[2,4,6,8,10,-1,12,-1,-1,-1,14,-1,-1,-1,-1],"split_conditions":[1E0,7E1,8E1,7.6E1,2.75E1,5.4412264E-2,1.19E2,-6.5653883E-3,3.4542263E-2,-1.2319416E-2,8E1,-1.2552213E-2,4.1469164E-2,-3.194529E-2,-6.051345E-2],"split_indices":[3,9,5,1,0,0,5,0,0,0,1,0,0,0,0],"split_type":[0,0,0,0,0,0,0,0,0,0,0,0,0,0,0],"sum_hessian":[1.1574602E2,6.908951E1,4.6656513E1,2.9902027E1,3.918748E1,1.3117562E1,3.353895E1,1.4364661E1,1.5537365E1,1.2882448E1,2.630503E1,1.9450096E1,1.4088856E1,1.2233519E1,1.4071513E1],"tree_param":{"num_deleted":"0","num_feature":"12","num_nodes":"15","size_leaf_vector":"1"}},{"base_weights":[4.7574688E-2,-2.2889826E-1,4.422537E-1,1.7129472E-1,-6.0220784E-1,6.204172E-2,1.9909227E-1,-1.5505962E-2,3.492274E-2,-1.0567276E-2,-5.1167954E-2,3.041118E-2,-1.8670768E-3],"categories":[],"categories_nodes":[],"categories_segments":[],"categories_sizes":[],"default_left":[0,0,0,0,0,0,0,0,0,0,0,0,0],"id":9,"left_children":[1,3,5,7,9,-1,11,-1,-1,-1,-1,-1,-1],"loss_changes":[1.2548178E1,1.0222987E1,6.590227E0,6.043115E0,3.6018057E0,0E0,2.4732523E0,0E0,0E0,0E0,0E0,0E0,0E0],"parents":[2147483647,0,0,1,1,2,2,3,3,4,4,6,6],"right_children":[2,4,6,8,10,-1,12,-1,-1,-1,-1,-1,-1],"split_conditions":[1E0,2.62E1,7.51E1,7.6E1,7.7E1,6.204172E-2,3.9E1,-1.5505962E-2,3.492274E-2,-1.0567276E-2,-5.1167954E-2,3.041118E-2,-1.8670768E-3],"split_indices":[3,0,5,1,9,0,2,0,0,0,0,0,0],"split_type":[0,0,0,0,0,0,0,0,0,0,0,0,0],"sum_hessian":[1.1306861E2,6.673837E1,4.633024E1,3.2470596E1,3.4267776E1,1.2566642E1,3.3763596E1,1.6041449E1,1.6429148E1,1.3281674E1,2.0986101E1,1.3950047E1,1.981355E1],"tree_param":{"num_deleted":"0","num_feature":"12","num_nodes":"13","size_leaf_vector":"1"}},{"base_weights":[1.1269257E-2,-2.6086637E-1,4.1104198E-1,1.3157882E-1,-6.041753E-1,5.965203E-2,1.7697252E-1,-1.6829178E-2,2.9240986E-2,-6.747759E-3,-5.1790867E-2,-3.9025266E-3,3.391436E-2],"categories":[],"categories_nodes":[],"categories_segments":[],"categories_sizes":[],"default_left":[0,0,0,0,0,0,0,0,0,0,0,0,0],"id":10,"left_children":[1,3,5,7,9,-1,11,-1,-1,-1,-1,-1,-1],"loss_changes":[1.2552782E1,9.332207E0,6.188163E0,4.9422197E0,4.573018E0,0E0,3.2749183E0,0E0,0E0,0E0,0E0,0E0,0E0],"parents":[2147483647,0,0,1,1,2,2,3,3,4,4,6,6],"right_children":[2,4,6,8,10,-1,12,-1,-1,-1,-1,-1,-1],"split_conditions":[1E0,2.6E1,7.51E1,7.6E1,1.57E2,5.965203E-2,1.19E2,-1.6829178E-2,2.9240986E-2,-6.747759E-3,-5.1790867E-2,-3.9025266E-3,3.391436E-2],"split_indices":[3,0,5,1,4,0,5,0,0,0,0,0,0],"split_type":[0,0,0,0,0,0,0,0,0,0,0,0,0],"sum_hessian":[1.1339728E2,6.7675964E1,4.5721317E1,3.1865938E1,3.5810028E1,1.2185305E1,3.353601E1,1.4855857E1,1.701008E1,1.2812681E1,2.2997345E1,2.1159622E1,1.23763895E1],"tree_param":{"num_deleted":"0","num_feature":"12","num_nodes":"13","size_leaf_vector":"1"}},{"base_weights":[-7.589417E-4,-2.5212947E-1,3.3070302E-1,1.7510508E-1,-5.3390634E-1,5.602864E-2,9.517008E-2,3.3917014E-2,-1.2830069E-2,-8.513639E-3,-5.172441E-2,-1.2834521E-2,3.3735335E-2],"categories":[],"categories_nodes":[],"categories_segments":[],"categories_sizes":[],"default_left":[0,0,0,0,0,0,0,0,0,0,0,0,0],"id":11,"left_children":[1,3,5,7,9,-1,11,-1,-1,-1,-1,-1,-1],"loss_changes":[9.691116E0,8.05648E0,7.0235796E0,4.2139835E0,5.0227594E0,0E0,5.4734645E0,0E0,0E0,0E0,0E0,0E0,0E0],"parents":[2147483647,0,0,1,1,2,2,3,3,4,4,6,6],"right_children":[2,4,6,8,10,-1,12,-1,-1,-1,-1,-1,-1],"split_conditions":[1E0,2.5E1,7.51E1,1.33E2,7.7E1,5.602864E-2,1.19E2,3.3917014E-2,-1.2830069E-2,-8.513639E-3,-5.172441E-2,-1.2834521E-2,3.3735335E-2],"split_indices":[3,0,5,6,9,0,5,0,0,0,0,0,0],"split_type":[0,0,0,0,0,0,0,0,0,0,0,0,0],"sum_hessian":[1.14311615E2,6.514613E1,4.9165478E1,2.6040972E1,3.910516E1,1.2994959E1,3.617052E1,1.2781029E1,1.3259943E1,1.8434803E1,2.0670359E1,2.2087446E1,1.4083074E1],"tree_param":{"num_deleted":"0","num_feature":"12","num_nodes":"13","size_leaf_vector":"1"}},{"base_weights":[-5.6558225E-2,-5.0745827E-1,2.7772152E-1,-8.107086E-3,-7.3166096E-1,1.0077492E-1,4.0653367E-2,-6.103427E-2,-2.5697123E-2,2.6629952E-1,-1.20005375E-2,2.576596E-2,3.8356264E-3],"categories":[],"categories_nodes":[],"categories_segments":[],"categories_sizes":[],"default_left":[0,0,0,0,0,0,0,0,0,0,0,0,0],"id":12,"left_children":[1,3,5,-1,7,9,-1,-1,-1,11,-1,-1,-1],"loss_changes":[1.7696175E1,4.0720835E0,4.699497E0,0E0,2.2395897E0,2.4389243E0,0E0,0E0,0E0,1.004741E0,0E0,0E0,0E0],"parents":[2147483647,0,0,1,1,2,2,4,4,5,5,9,9],"right_children":[2,4,6,-1,8,10,-1,-1,-1,12,-1,-1,-1],"split_conditions":[4E0,2.62E1,5E0,-8.107086E-3,3E0,1.65E2,4.0653367E-2,-6.103427E-2,-2.5697123E-2,1.072E2,-1.20005375E-2,2.576596E-2,3.8356264E-3],"split_indices":[11,0,11,0,11,4,0,0,0,5,0,0,0],"split_type":[0,0,0,0,0,0,0,0,0,0,0,0,0],"sum_hessian":[1.1547064E2,4.8939514E1,6.653113E1,1.8989958E1,2.9949556E1,4.695833E1,1.95728E1,1.4263227E1,1.5686328E1,3.0354164E1,1.6604164E1,1.6213722E1,1.4140442E1],"tree_param":{"num_deleted":"0","num_feature":"12","num_nodes":"13","size_leaf_vector":"1"}},{"base_weights":[1.1286366E-1,-3.676937E-1,4.3028358E-1,5.008202E-3,-6.521541E-1,6.9825864E-1,2.2466318E-1,-5.518412E-2,-1.688516E-2,1.1493916E-2,7.732222E-2,4.2236263E-1,-1.342288E-2,7.5146174E-3,4.1290656E-2],"categories":[],"categories_nodes":[],"categories_segments":[],"categories_sizes":[],"default_left":[0,0,0,0,0,0,0,0,0,0,0,0,0,0,0],"id":13,"left_children":[1,3,5,-1,7,9,11,-1,-1,-1,-1,13,-1,-1,-1],"loss_changes":[1.752047E1,5.932886E0,3.6454735E0,0E0,2.53092E0,8.555406E0,3.6840384E0,0E0,0E0,0E0,0E0,2.1558304E0,0E0,0E0,0E0],"parents":[2147483647,0,0,1,1,2,2,4,4,5,5,6,6,11,11],"right_children":[2,4,6,-1,8,10,12,-1,-1,-1,-1,14,-1,-1,-1],"split_conditions":[4E0,2.6E1,4.11E1,5.008202E-3,3.16E1,7.4E1,1.65E2,-5.518412E-2,-1.688516E-2,1.1493916E-2,7.732222E-2,1E0,-1.342288E-2,7.5146174E-3,4.1290656E-2],"split_indices":[11,0,2,0,0,1,4,0,0,0,0,3,0,0,0],"split_type":[0,0,0,0,0,0,0,0,0,0,0,0,0,0,0],"sum_hessian":[1.1282215E2,4.4815468E1,6.800668E1,1.7605663E1,2.7209803E1,2.8486176E1,3.9520508E1,1.49793825E1,1.223042E1,1.6019709E1,1.2466469E1,2.7461874E1,1.2058633E1,1.36354065E1,1.38264675E1],"tree_param":{"num_deleted":"0","num_feature":"12","num_nodes":"15","size_leaf_vector":"1"}},{"base_weights":[-1.0473882E-2,-4.4840756E-1,3.0034545E-1,9.103377E-3,-6.802896E-1,3.830151E-2,1.0753642E-1,-6.005084E-2,-2.6961247E-2,-8.530068E-3,2.4309011E-2],"categories":[],"categories_nodes":[],"categories_segments":[],"categories_sizes":[],"default_left":[0,0,0,0,0,0,0,0,0,0,0],"id":14,"left_children":[1,3,5,-1,7,-1,9,-1,-1,-1,-1],"loss_changes":[1.5268474E1,6.579508E0,4.1984115E0,0E0,2.0467987E0,0E0,3.242114E0,0E0,0E0,0E0,0E0],"parents":[2147483647,0,0,1,1,2,2,4,4,6,6],"right_children":[2,4,6,-1,8,-1,10,-1,-1,-1,-1],"split_conditions":[4E0,8.64E1,3.9E1,9.103377E-3,1.61E2,3.830151E-2,7.6E1,-6.005084E-2,-2.6961247E-2,-8.530068E-3,2.4309011E-2],"split_indices":[11,5,2,0,4,0,1,0,0,0,0],"split_type":[0,0,0,0,0,0,0,0,0,0,0],"sum_hessian":[1.10181244E2,4.5554237E1,6.462701E1,1.2795454E1,3.2758785E1,2.2670412E1,4.1956593E1,1.2373527E1,2.0385258E1,2.3088116E1,1.8868479E1],"tree_param":{"num_deleted":"0","num_feature":"12","num_nodes":"11","size_leaf_vector":"1"}},{"base_weights":[-9.241014E-3,-4.081487E-1,2.711896E-1,3.087694E-3,-6.0845286E-1,1.6105773E-2,5.2244186E-1,-6.026097E-2,-1.7163616E-2,-1.7916363E-2,1.9113107E-2,4.9115676E-2,1.3674816E-2],"categories":[],"categories_nodes":[],"categories_segments":[],"categories_sizes":[],"default_left":[0,0,0,0,0,0,0,0,0,0,0,0,0],"id":15,"left_children":[1,3,5,-1,7,9,11,-1,-1,-1,-1,-1,-1],"loss_changes":[1.2723923E1,4.3523884E0,4.2734323E0,0E0,3.8875399E0,3.3404953E0,2.739625E0,0E0,0E0,0E0,0E0,0E0,0E0],"parents":[2147483647,0,0,1,1,2,2,4,4,5,5,6,6],"right_children":[2,4,6,-1,8,10,12,-1,-1,-1,-1,-1,-1],"split_conditions":[4E0,3.74E1,1E0,3.087694E-3,3E0,7.6E1,7.1E1,-6.026097E-2,-1.7163616E-2,-1.7916363E-2,1.9113107E-2,4.9115676E-2,1.3674816E-2],"split_indices":[11,2,3,0,11,1,1,0,0,0,0,0,0],"split_type":[0,0,0,0,0,0,0,0,0,0,0,0,0],"sum_hessian":[1.1175315E2,4.5943657E1,6.5809494E1,1.4172323E1,3.1771334E1,3.3183773E1,3.262572E1,1.334528E1,1.8426054E1,1.6267239E1,1.6916536E1,1.541789E1,1.720783E1],"tree_param":{"num_deleted":"0","num_feature":"12","num_nodes":"13","size_leaf_vector":"1"}},{"base_weights":[-1.9744618E-3,-1.5170386E-1,4.072522E-2,-3.958843E-2,-1.2665867E-2,1.6738888E-2,-1.1568268E-1,-3.1332422E-2,6.33347E-2,1.9058047E-2,-1.4761586E-2],"categories":[],"categories_nodes":[],"categories_segments":[],"categories_sizes":[],"default_left":[0,0,0,0,0,0,0,0,0,0,0],"id":16,"left_children":[1,3,-1,-1,5,-1,7,-1,9,-1,-1],"loss_changes":[1.1336169E1,6.42764E0,0E0,0E0,2.2120593E0,0E0,3.983389E0,0E0,3.1084578E0,0E0,0E0],"parents":[2147483647,0,0,1,1,4,4,6,6,8,8],"right_children":[2,4,-1,-1,6,-1,8,-1,10,-1,-1],"split_conditions":[5E0,3E0,4.072522E-2,-3.958843E-2,8.4E1,1.6738888E-2,1.033E2,-3.1332422E-2,7.1E1,1.9058047E-2,-1.4761586E-2],"split_indices":[11,11,0,0,5,0,5,0,9,0,0],"split_type":[0,0,0,0,0,0,0,0,0,0,0],"sum_hessian":[1.0934882E2,9.025006E1,1.9098766E1,1.8610382E1,7.163968E1,1.8270796E1,5.336888E1,1.5748953E1,3.761993E1,2.0638172E1,1.6981756E1],"tree_param":{"num_deleted":"0","num_feature":"12","num_nodes":"11","size_leaf_vector":"1"}},{"base_weights":[-6.449592E-3,-3.6265695E-1,2.4822387E-1,6.095782E-3,-5.357896E-1,5.143188E-1,1.5707131E-2,-4.3295525E-2,-1.6048642E-2,1.6321465E-2,4.7658093E-2,-1.3124881E-2,1.7198782E-2],"categories":[],"categories_nodes":[],"categories_segments":[],"categories_sizes":[],"default_left":[0,0,0,0,0,0,0,0,0,0,0,0,0],"id":17,"left_children":[1,3,5,-1,7,9,11,-1,-1,-1,-1,-1,-1],"loss_changes":[1.0114391E1,3.7888212E0,4.015301E0,0E0,1.4967213E0,1.835082E0,2.3269203E0,0E0,0E0,0E0,0E0,0E0,0E0],"parents":[2147483647,0,0,1,1,2,2,4,4,5,5,6,6],"right_children":[2,4,6,-1,8,10,12,-1,-1,-1,-1,-1,-1],"split_conditions":[4E0,3.74E1,4.11E1,6.095782E-3,1.65E2,1.021E2,1E0,-4.3295525E-2,-1.6048642E-2,1.6321465E-2,4.7658093E-2,-1.3124881E-2,1.7198782E-2],"split_indices":[11,2,2,0,4,5,3,0,0,0,0,0,0],"split_type":[0,0,0,0,0,0,0,0,0,0,0,0,0],"sum_hessian":[1.09502106E2,4.5474167E1,6.402794E1,1.2467022E1,3.3007145E1,2.9292864E1,3.4735073E1,1.8554083E1,1.4453064E1,1.6723034E1,1.2569831E1,1.8723171E1,1.6011902E1],"tree_param":{"num_deleted":"0","num_feature":"12","num_nodes":"13","size_leaf_vector":"1"}},{"base_weights":[-1.1090456E-2,-4.3230586E-2,1.338766E-1,-9.336071E-3,3.841388E-2,1.987816E-1,-2.3172306E-1,1.2538719E-4,3.0491192E-2,-3.505238E-2,2.776388E-3],"categories":[],"categories_nodes":[],"categories_segments":[],"categories_sizes":[],"default_left":[0,0,0,0,0,0,0,0,0,0,0],"id":18,"left_children":[1,-1,3,5,-1,7,9,-1,-1,-1,-1],"loss_changes":[1.1374757E1,0E0,6.666841E0,3.4096882E0,0E0,2.3117115E0,3.5069728E0,0E0,0E0,0E0,0E0],"parents":[2147483647,0,0,2,2,3,3,5,5,6,6],"right_children":[2,-1,4,6,-1,8,10,-1,-1,-1,-1],"split_conditions":[3E0,-4.3230586E-2,5E0,7.1E1,3.841388E-2,6.5E1,1.36E2,1.2538719E-4,3.0491192E-2,-3.505238E-2,2.776388E-3],"split_indices":[11,0,11,9,0,9,6,0,0,0,0],"split_type":[0,0,0,0,0,0,0,0,0,0,0],"sum_hessian":[1.0880596E2,1.7807669E1,9.09983E1,7.167573E1,1.9322569E1,3.7080563E1,3.4595165E1,2.3266218E1,1.3814344E1,1.4784634E1,1.9810532E1],"tree_param":{"num_deleted":"0","num_feature":"12","num_nodes":"11","size_leaf_vector":"1"}},{"base_weights":[-3.067182E-3,-3.709695E-2,1.3083461E-1,-9.6579775E-2,3.7830168E-1,1.0117811E-1,-2.6445989E-2,5.9458923E-1,-5.952566E-3,-1.279364E-2,2.1877956E-2,1.5462838E-2,5.0173152E-2],"categories":[],"categories_nodes":[],"categories_segments":[],"categories_sizes":[],"default_left":[0,0,0,0,0,0,0,0,0,0,0,0,0],"id":19,"left_children":[1,-1,3,5,7,9,-1,11,-1,-1,-1,-1,-1],"loss_changes":[8.95515E0,0E0,5.067034E0,3.2641735E0,4.499797E0,2.6292212E0,0E0,2.197874E0,0E0,0E0,0E0,0E0,0E0],"parents":[2147483647,0,0,2,2,3,3,4,4,5,5,7,7],"right_children":[2,-1,4,6,8,10,-1,12,-1,-1,-1,-1,-1],"split_conditions":[3E0,-3.709695E-2,7.6E1,7.1E1,2.98E1,6.6E1,-2.6445989E-2,2.46E1,-5.952566E-3,-1.279364E-2,2.1877956E-2,1.5462838E-2,5.0173152E-2],"split_indices":[11,0,1,1,0,9,0,0,0,0,0,0,0],"split_type":[0,0,0,0,0,0,0,0,0,0,0,0,0],"sum_hessian":[1.0686182E2,1.8474567E1,8.8387245E1,4.637751E1,4.2009735E1,2.9884829E1,1.6492683E1,2.874216E1,1.3267573E1,1.3705084E1,1.6179743E1,1.2830032E1,1.5912128E1],"tree_param":{"num_deleted":"0","num_feature":"12","num_nodes":"13","size_leaf_vector":"1"}},{"base_weights":[-8.1728496E-2,-4.5837644E-1,1.7007533E-1,-4.404022E-3,-6.038637E-1,6.0437318E-2,3.5934445E-2,-5.430979E-2,-2.2464018E-2,2.7095464E-1,-1.20646395E-2,-4.184528E-3,3.7155587E-2],"categories":[],"categories_nodes":[],"categories_segments":[],"categories_sizes":[],"default_left":[0,0,0,0,0,0,0,0,0,0,0,0,0],"id":20,"left_children":[1,3,5,-1,7,9,-1,-1,-1,11,-1,-1,-1],"loss_changes":[1.0380264E1,2.4092016E0,3.0536497E0,0E0,1.8461809E0,2.9981527E0,0E0,0E0,0E0,3.60199E0,0E0,0E0,0E0],"parents":[2147483647,0,0,1,1,2,2,4,4,5,5,9,9],"right_children":[2,4,6,-1,8,10,-1,-1,-1,12,-1,-1,-1],"split_conditions":[4E0,3.8E1,1.33E2,-4.404022E-3,3E0,1.38E2,3.5934445E-2,-5.430979E-2,-2.2464018E-2,1.6E2,-1.20646395E-2,-4.184528E-3,3.7155587E-2],"split_indices":[11,2,5,0,11,6,0,0,0,4,0,0,0],"split_type":[0,0,0,0,0,0,0,0,0,0,0,0,0],"sum_hessian":[1.07626686E2,4.2794437E1,6.483225E1,1.2147363E1,3.0647074E1,5.2521923E1,1.2310331E1,1.2021437E1,1.8625637E1,2.9065153E1,2.3456768E1,1.5082597E1,1.3982556E1],"tree_param":{"num_deleted":"0","num_feature":"12","num_nodes":"13","size_leaf_vector":"1"}},{"base_weights":[7.445087E-2,-2.6773537E-2,1.780204E-1,3.732813E-2,9.2762254E-2,3.2267022E-1,-1.5040654E-1,3.3793543E-2,-3.019815E-3,-2.8724933E-2,1.3255059E-2],"categories":[],"categories_nodes":[],"categories_segments":[],"categories_sizes":[],"default_left":[0,0,0,0,0,0,0,0,0,0,0],"id":21,"left_children":[1,-1,3,-1,5,7,9,-1,-1,-1,-1],"loss_changes":[5.908584E0,0E0,3.380391E0,0E0,4.3791614E0,3.6183372E0,4.766486E0,0E0,0E0,0E0,0E0],"parents":[2147483647,0,0,2,2,4,4,5,5,6,6],"right_children":[2,-1,4,-1,6,8,10,-1,-1,-1,-1],"split_conditions":[3E0,-2.6773537E-2,7.1E1,3.732813E-2,7E1,1.169E2,1.118E2,3.3793543E-2,-3.019815E-3,-2.8724933E-2,1.3255059E-2],"split_indices":[11,0,5,0,9,5,5,0,0,0,0],"split_type":[0,0,0,0,0,0,0,0,0,0,0],"sum_hessian":[1.0721229E2,1.7255093E1,8.99572E1,1.3495104E1,7.646209E1,3.913465E1,3.7327442E1,2.350752E1,1.562713E1,1.9667015E1,1.7660427E1],"tree_param":{"num_deleted":"0","num_feature":"12","num_nodes":"11","size_leaf_vector":"1"}},{"base_weights":[7.886548E-3,3.758062E-1,-1.0516965E-1,4.0778615E-2,2.617318E-3,1.1344947E-1,-3.4171078E-1,-1.0580006E-2,2.9645658E-1,-3.916995E-2,7.6991715E-3,4.6904616E-2,-1.3029698E-2],"categories":[],"categories_nodes":[],"categories_segments":[],"categories_sizes":[],"default_left":[0,0,0,0,0,0,0,0,0,0,0,0,0],"id":22,"left_children":[1,3,5,-1,-1,7,9,-1,11,-1,-1,-1,-1],"loss_changes":[4.497544E0,2.5284095E0,4.318717E0,0E0,0E0,2.3712723E0,5.9160414E0,0E0,6.9287643E0,0E0,0E0,0E0,0E0],"parents":[2147483647,0,0,1,1,2,2,5,5,6,6,8,8],"right_children":[2,4,6,-1,-1,8,10,-1,12,-1,-1,-1,-1],"split_conditions":[3.6E1,1.38E2,7.1E1,4.0778615E-2,2.617318E-3,7.3E1,1.399E2,-1.0580006E-2,5.2E1,-3.916995E-2,7.6991715E-3,4.6904616E-2,-1.3029698E-2],"split_indices":[2,6,9,0,0,1,6,0,2,0,0,0,0],"split_type":[0,0,0,0,0,0,0,0,0,0,0,0,0],"sum_hessian":[1.061753E2,2.4410843E1,8.1764465E1,1.2221843E1,1.2189E1,4.2762413E1,3.900205E1,1.657472E1,2.6187693E1,2.3255913E1,1.5746136E1,1.3206868E1,1.29808235E1],"tree_param":{"num_deleted":"0","num_feature":"12","num_nodes":"13","size_leaf_vector":"1"}},{"base_weights":[3.8245097E-2,-3.4806885E-2,1.6090646E-1,4.0397003E-2,3.38148E-2,2.5378289E-2,-1.0571088E-1,-2.5222072E-1,1.7344916E-2,6.2662587E-3,-3.0075865E-2],"categories":[],"categories_nodes":[],"categories_segments":[],"categories_sizes":[],"default_left":[0,0,0,0,0,0,0,0,0,0,0],"id":23,"left_children":[1,-1,3,5,-1,-1,7,9,-1,-1,-1],"loss_changes":[8.113976E0,0E0,4.2939177E0,3.931692E0,0E0,0E0,3.029913E0,3.4041429E0,0E0,0E0,0E0],"parents":[2147483647,0,0,2,2,3,3,6,6,7,7],"right_children":[2,-1,4,6,-1,-1,8,10,-1,-1,-1],"split_conditions":[3E0,-3.4806885E-2,5E0,3.74E1,3.38148E-2,2.5378289E-2,5.7E1,6.9E1,1.7344916E-2,6.2662587E-3,-3.0075865E-2],"split_indices":[11,0,11,2,0,0,2,9,0,0,0],"split_type":[0,0,0,0,0,0,0,0,0,0,0],"sum_hessian":[1.0487025E2,1.675919E1,8.811105E1,6.863502E1,1.9476034E1,1.8463858E1,5.017116E1,3.6845608E1,1.3325555E1,1.53687105E1,2.1476898E1],"tree_param":{"num_deleted":"0","num_feature":"12","num_nodes":"11","size_leaf_vector":"1"}},{"base_weights":[-2.8552316E-2,-2.4130471E-1,2.6309955E-1,2.485756E-2,-4.9209955E-1,4.106064E-2,9.257564E-2,1.9626612E-2,-2.28377E-2,-1.2380916E-2,-4.964074E-2,-2.261615E-2,2.2169245E-2],"categories":[],"categories_nodes":[],"categories_segments":[],"categories_sizes":[],"default_left":[0,0,0,0,0,0,0,0,0,0,0,0,0],"id":24,"left_children":[1,3,5,7,9,-1,11,-1,-1,-1,-1,-1,-1],"loss_changes":[6.743863E0,4.2024503E0,3.2263618E0,3.9635158E0,2.923654E0,0E0,4.522092E0,0E0,0E0,0E0,0E0,0E0,0E0],"parents":[2147483647,0,0,1,1,2,2,3,3,4,4,6,6],"right_children":[2,4,6,8,10,-1,12,-1,-1,-1,-1,-1,-1],"split_conditions":[1E0,2.6E1,7.51E1,1.39E2,4.7E1,4.106064E-2,1.02E2,1.9626612E-2,-2.28377E-2,-1.2380916E-2,-4.964074E-2,-2.261615E-2,2.2169245E-2],"split_indices":[3,0,5,6,2,0,5,0,0,0,0,0,0],"split_type":[0,0,0,0,0,0,0,0,0,0,0,0,0],"sum_hessian":[1.0666181E2,6.17728E1,4.488901E1,3.0405302E1,3.1367498E1,1.2085796E1,3.2803215E1,1.753228E1,1.287302E1,1.7773914E1,1.3593584E1,1.2030261E1,2.0772953E1],"tree_param":{"num_deleted":"0","num_feature":"12","num_nodes":"13","size_leaf_vector":"1"}},{"base_weights":[-5.4420415E-2,3.1836957E-1,-1.7811546E-1,4.152298E-2,-7.0203287E-3,1.7284334E-2,-2.787331E-1,-3.9898998E-1,5.3452817E-3,-2.2855976E-1,-4.8774544E-2,-4.2332087E-2,3.1295773E-3],"categories":[],"categories_nodes":[],"categories_segments":[],"categories_sizes":[],"default_left":[0,0,0,0,0,0,0,0,0,0,0,0,0],"id":25,"left_children":[1,3,5,-1,-1,-1,7,9,-1,11,-1,-1,-1],"loss_changes":[4.8808947E0,4.3682795E0,3.7921004E0,0E0,0E0,0E0,2.9378748E0,3.3078375E0,0E0,4.917829E0,0E0,0E0,0E0],"parents":[2147483647,0,0,1,1,2,2,6,6,7,7,9,9],"right_children":[2,4,6,-1,-1,-1,8,10,-1,12,-1,-1,-1],"split_conditions":[3.6E1,1.38E2,8E1,4.152298E-2,-7.0203287E-3,1.7284334E-2,5.7E1,1.68E2,5.3452817E-3,1.053E2,-4.8774544E-2,-4.2332087E-2,3.1295773E-3],"split_indices":[2,6,5,0,0,0,2,4,0,5,0,0,0],"split_type":[0,0,0,0,0,0,0,0,0,0,0,0,0],"sum_hessian":[1.0361831E2,2.542352E1,7.8194786E1,1.3376827E1,1.2046693E1,1.3559414E1,6.4635376E1,4.8642227E1,1.599315E1,3.553033E1,1.3111894E1,1.2616773E1,2.2913559E1],"tree_param":{"num_deleted":"0","num_feature":"12","num_nodes":"13","size_leaf_vector":"1"}},{"base_weights":[3.3735346E-2,-8.54911E-2,3.5491113E-2,2.505338E-1,-2.3290044E-1,-9.630768E-3,3.407344E-2,-3.644151E-1,7.7439765E-3,-6.417578E-3,-5.645649E-1,-4.1341133E-2,-2.3283178E-2],"categories":[],"categories_nodes":[],"categories_segments":[],"categories_sizes":[],"default_left":[0,0,0,0,0,0,0,0,0,0,0,0,0],"id":26,"left_children":[1,3,-1,5,7,-1,-1,9,-1,-1,11,-1,-1],"loss_changes":[7.2930684E0,4.550949E0,0E0,3.75148E0,3.0713844E0,0E0,0E0,2.356524E0,0E0,0E0,3.052683E-1,0E0,0E0],"parents":[2147483647,0,0,1,1,3,3,4,4,7,7,10,10],"right_children":[2,4,-1,6,8,-1,-1,10,-1,-1,12,-1,-1],"split_conditions":[5E0,3.74E1,3.5491113E-2,7.4E1,5.7E1,-9.630768E-3,3.407344E-2,7E1,7.7439765E-3,-6.417578E-3,3.02E1,-4.1341133E-2,-2.3283178E-2],"split_indices":[11,2,0,1,2,0,0,9,0,0,0,0,0],"split_type":[0,0,0,0,0,0,0,0,0,0,0,0,0],"sum_hessian":[1.08050735E2,8.969874E1,1.8352E1,2.713773E1,6.256101E1,1.2026837E1,1.5110892E1,4.5877537E1,1.6683474E1,2.073095E1,2.5146585E1,1.3106426E1,1.2040159E1],"tree_param":{"num_deleted":"0","num_feature":"12","num_nodes":"13","size_leaf_vector":"1"}},{"base_weights":[3.4419622E-2,-5.661848E-2,2.9552652E-2,1.8816082E-1,-1.6374682E-1,-4.307408E-3,2.998553E-2,-2.7563873E-1,1.2270076E-2,8.537808E-3,-4.2038763E-1,-3.549102E-2,-4.8755407E-3],"categories":[],"categories_nodes":[],"categories_segments":[],"categories_sizes":[],"default_left":[0,0,0,0,0,0,0,0,0,0,0,0,0],"id":27,"left_children":[1,3,-1,5,7,-1,-1,9,-1,-1,11,-1,-1],"loss_changes":[4.552276E0,2.430094E0,0E0,2.324236E0,2.6988316E0,0E0,0E0,3.0614252E0,0E0,0E0,2.0975666E0,0E0,0E0],"parents":[2147483647,0,0,1,1,3,3,4,4,7,7,10,10],"right_children":[2,4,-1,6,8,-1,-1,10,-1,-1,12,-1,-1],"split_conditions":[5E0,3.74E1,2.9552652E-2,9.68E1,1.323E2,-4.307408E-3,2.998553E-2,8.5E1,1.2270076E-2,8.537808E-3,2.86E1,-3.549102E-2,-4.8755407E-3],"split_indices":[11,2,0,5,5,0,0,5,0,0,0,0,0],"split_type":[0,0,0,0,0,0,0,0,0,0,0,0,0],"sum_hessian":[1.07627266E2,9.049608E1,1.7131186E1,2.731871E1,6.3177372E1,1.53015995E1,1.201711E1,4.8639137E1,1.4538235E1,1.2520894E1,3.6118244E1,2.354851E1,1.2569735E1],"tree_param":{"num_deleted":"0","num_feature":"12","num_nodes":"13","size_leaf_vector":"1"}},{"base_weights":[-4.147275E-2,-1.4361218E-1,2.6138129E-2,1.0728183E-1,-3.2257438E-1,-1.081427E-2,2.4639605E-2,-5.305725E-1,-1.9649332E-3,-2.0818578E-2,-4.5015696E-2],"categories":[],"categories_nodes":[],"categories_segments":[],"categories_sizes":[],"default_left":[0,0,0,0,0,0,0,0,0,0,0],"id":28,"left_children":[1,3,-1,5,7,-1,-1,9,-1,-1,-1],"loss_changes":[5.2989717E0,4.046149E0,0E0,3.3756387E0,3.141704E0,0E0,0E0,9.6576595E-1,0E0,0E0,0E0],"parents":[2147483647,0,0,1,1,3,3,4,4,7,7],"right_children":[2,4,-1,6,8,-1,-1,10,-1,-1,-1],"split_conditions":[5E0,6.9E1,2.6138129E-2,6.1E1,1E0,-1.081427E-2,2.4639605E-2,4.7E1,-1.9649332E-3,-2.0818578E-2,-4.5015696E-2],"split_indices":[11,9,0,9,3,0,0,2,0,0,0],"split_type":[0,0,0,0,0,0,0,0,0,0,0],"sum_hessian":[1.065782E2,8.834285E1,1.8235353E1,3.6946568E1,5.1396282E1,1.9168869E1,1.7777699E1,2.9440434E1,2.1955847E1,1.739278E1,1.2047654E1],"tree_param":{"num_deleted":"0","num_feature":"12","num_nodes":"11","size_leaf_vector":"1"}},{"base_weights":[-4.460575E-2,1.8337715E-1,-2.5645405E-1,3.867794E-1,-3.9116214E-3,-4.515111E-1,3.1393506E-3,1.0968427E-3,4.4270452E-2,-9.851028E-3,-3.7771065E-2],"categories":[],"categories_nodes":[],"categories_segments":[],"categories_sizes":[],"default_left":[0,0,0,0,0,0,0,0,0,0,0],"id":29,"left_children":[1,3,5,7,-1,9,-1,-1,-1,-1,-1],"loss_changes":[5.1477933E0,2.6257074E0,3.345091E0,3.655847E0,0E0,1.6246285E0,0E0,0E0,0E0,0E0,0E0],"parents":[2147483647,0,0,1,1,2,2,3,3,5,5],"right_children":[2,4,6,8,-1,10,-1,-1,-1,-1,-1],"split_conditions":[7E1,1.38E2,1E0,7.3E1,-3.9116214E-3,7.7E1,3.1393506E-3,1.0968427E-3,4.4270452E-2,-9.851028E-3,-3.7771065E-2],"split_indices":[9,6,3,1,0,9,0,0,0,0,0],"split_type":[0,0,0,0,0,0,0,0,0,0,0],"sum_hessian":[1.0461075E2,5.0451355E1,5.415939E1,2.7436535E1,2.301482E1,3.2905632E1,2.1253756E1,1.3880043E1,1.3556491E1,1.3281874E1,1.962376E1],"tree_param":{"num_deleted":"0","num_feature":"12","num_nodes":"11","size_leaf_vector":"1"}},{"base_weights":[-2.9415242E-2,-3.0460456E-1,1.4454041E-1,-3.9019044E-3,-2.8427849E-2,-8.5833065E-2,3.351807E-1,8.868314E-3,-1.7328123E-2,4.265046E-2,7.0945285E-3],"categories":[],"categories_nodes":[],"categories_segments":[],"categories_sizes":[],"default_left":[0,0,0,0,0,0,0,0,0,0,0],"id":30,"left_children":[1,3,5,-1,-1,7,9,-1,-1,-1,-1],"loss_changes":[5.1353703E0,1.6466856E0,2.920454E0,0E0,0E0,1.4904422E0,2.8639174E0,0E0,0E0,0E0,0E0],"parents":[2147483647,0,0,1,1,2,2,5,5,6,6],"right_children":[2,4,6,-1,-1,8,10,-1,-1,-1,-1],"split_conditions":[4E0,2.6E1,7.4E1,-3.9019044E-3,-2.8427849E-2,6.6E1,4.11E1,8.868314E-3,-1.7328123E-2,4.265046E-2,7.0945285E-3],"split_indices":[11,0,1,0,0,1,2,0,0,0,0],"split_type":[0,0,0,0,0,0,0,0,0,0,0],"sum_hessian":[1.0535606E2,4.0513943E1,6.484211E1,1.7303593E1,2.321035E1,2.9610256E1,3.5231857E1,1.3883984E1,1.5726272E1,1.20898E1,2.3142056E1],"tree_param":{"num_deleted":"0","num_feature":"12","num_nodes":"11","size_leaf_vector":"1"}},{"base_weights":[6.7188956E-2,-2.8754024E-2,3.0823825E-2,1.5095513E-1,-1.909385E-1,2.9916552E-1,-1.0481582E-2,2.4099052E-3,-2.3356728E-2,1.0989452E-3,3.2561455E-2],"categories":[],"categories_nodes":[],"categories_segments":[],"categories_sizes":[],"default_left":[0,0,0,0,0,0,0,0,0,0,0],"id":31,"left_children":[1,3,-1,5,7,9,-1,-1,-1,-1,-1],"loss_changes":[4.4057927E0,2.518259E0,0E0,2.0333674E0,2.0881734E0,1.9402511E0,0E0,0E0,0E0,0E0,0E0],"parents":[2147483647,0,0,1,1,3,3,4,4,5,5],"right_children":[2,4,-1,6,8,10,-1,-1,-1,-1,-1],"split_conditions":[5E0,7E1,3.0823825E-2,5.3E1,4.11E1,6.1E1,-1.0481582E-2,2.4099052E-3,-2.3356728E-2,1.0989452E-3,3.2561455E-2],"split_indices":[11,9,0,2,2,9,0,0,0,0,0],"split_type":[0,0,0,0,0,0,0,0,0,0,0],"sum_hessian":[1.0163974E2,8.441251E1,1.7227228E1,4.0075706E1,4.4336803E1,2.7590778E1,1.2484927E1,2.0820292E1,2.3516514E1,1.3292434E1,1.4298345E1],"tree_param":{"num_deleted":"0","num_feature":"12","num_nodes":"11","size_leaf_vector":"1"}},{"base_weights":[-1.6036075E-2,-3.5022536E-1,1.9234784E-1,-6.1267135E-3,-3.0013058E-2,-5.26004E-3,4.611116E-1,-1.716548E-2,1.3688694E-2,4.0379204E-2,1.0502604E-2],"categories":[],"categories_nodes":[],"categories_segments":[],"categories_sizes":[],"default_left":[0,0,0,0,0,0,0,0,0,0,0],"id":32,"left_children":[1,3,5,-1,-1,7,9,-1,-1,-1,-1],"loss_changes":[7.3337784E0,1.4481368E0,3.449992E0,0E0,0E0,2.5757217E0,1.5449305E0,0E0,0E0,0E0,0E0],"parents":[2147483647,0,0,1,1,2,2,5,5,6,6],"right_children":[2,4,6,-1,-1,8,10,-1,-1,-1,-1],"split_conditions":[4E0,7E1,7.6E1,-6.1267135E-3,-3.0013058E-2,1E0,2.68E1,-1.716548E-2,1.3688694E-2,4.0379204E-2,1.0502604E-2],"split_indices":[11,9,1,0,0,3,0,0,0,0,0],"split_type":[0,0,0,0,0,0,0,0,0,0,0],"sum_hessian":[1.0334302E2,3.9429115E1,6.3913902E1,1.5444382E1,2.3984734E1,3.739774E1,2.6516163E1,1.6872368E1,2.0525372E1,1.4488291E1,1.2027872E1],"tree_param":{"num_deleted":"0","num_feature":"12","num_nodes":"11","size_leaf_vector":"1"}},{"base_weights":[-6.662546E-2,-2.4284886E-1,1.7274691E-1,-3.7919417E-2,-1.3162778E-1,3.3060115E-2,-2.5579375E-3,-2.9778564E-2,5.4703295E-2,-2.0632163E-2,2.070008E-2,2.0318942E-2,-1.4729604E-2],"categories":[],"categories_nodes":[],"categories_segments":[],"categories_sizes":[],"default_left":[0,0,0,0,0,0,0,0,0,0,0,0,0],"id":33,"left_children":[1,3,5,-1,7,-1,9,-1,11,-1,-1,-1,-1],"loss_changes":[4.3916755E0,2.5001903E0,2.9341342E0,0E0,3.266702E0,0E0,3.8166628E0,0E0,2.8453603E0,0E0,0E0,0E0,0E0],"parents":[2147483647,0,0,1,1,2,2,4,4,6,6,8,8],"right_children":[2,4,6,-1,8,-1,10,-1,12,-1,-1,-1,-1],"split_conditions":[1E0,3E0,8E1,-3.7919417E-2,7.3E1,3.3060115E-2,7.5E1,-2.9778564E-2,7E1,-2.0632163E-2,2.070008E-2,2.0318942E-2,-1.4729604E-2],"split_indices":[3,11,5,0,1,0,1,0,9,0,0,0,0],"split_type":[0,0,0,0,0,0,0,0,0,0,0,0,0],"sum_hessian":[1.0211554E2,5.8807533E1,4.3308006E1,1.2051562E1,4.6755974E1,1.3053798E1,3.0254208E1,1.5266754E1,3.1489218E1,1.5269803E1,1.4984405E1,1.6120598E1,1.5368621E1],"tree_param":{"num_deleted":"0","num_feature":"12","num_nodes":"13","size_leaf_vector":"1"}},{"base_weights":[-3.97815E-2,-1.5525174E-1,2.772125E-2,7.815496E-3,-2.3650709E-1,-3.4868982E-1,7.5277733E-3,-1.7206454E-1,-4.631991E-2,1.0163777E-2,-2.4936732E-2],"categories":[],"categories_nodes":[],"categories_segments":[],"categories_sizes":[],"default_left":[0,0,0,0,0,0,0,0,0,0,0],"id":34,"left_children":[1,3,-1,-1,5,7,-1,9,-1,-1,-1],"loss_changes":[5.932036E0,1.9562626E0,0E0,0E0,2.6817436E0,3.5879202E0,0E0,3.0936341E0,0E0,0E0,0E0],"parents":[2147483647,0,0,1,1,4,4,5,5,7,7],"right_children":[2,4,-1,-1,6,8,-1,10,-1,-1,-1],"split_conditions":[5E0,3.42E1,2.772125E-2,7.815496E-3,5.7E1,4.91E1,7.5277733E-3,7E1,-4.631991E-2,1.0163777E-2,-2.4936732E-2],"split_indices":[11,2,0,0,2,2,0,9,0,0,0],"split_type":[0,0,0,0,0,0,0,0,0,0,0],"sum_hessian":[1.0025649E2,8.204549E1,1.8211006E1,1.8051664E1,6.3993824E1,4.887582E1,1.5118006E1,3.545566E1,1.3420159E1,1.4874085E1,2.0581573E1],"tree_param":{"num_deleted":"0","num_feature":"12","num_nodes":"11","size_leaf_vector":"1"}},{"base_weights":[-2.3403881E-2,-8.5002296E-2,2.408039E-2,1.6957235E-2,-2.0009461E-1,-3.409098E-1,1.7142348E-2,-4.02451E-2,-1.2664619E-1,7.447649E-3,-3.296629E-2],"categories":[],"categories_nodes":[],"categories_segments":[],"categories_sizes":[],"default_left":[0,0,0,0,0,0,0,0,0,0,0],"id":35,"left_children":[1,3,-1,-1,5,7,-1,-1,9,-1,-1],"loss_changes":[2.7651098E0,3.9487634E0,0E0,0E0,4.929902E0,3.8103342E0,0E0,0E0,3.7384536E0,0E0,0E0],"parents":[2147483647,0,0,1,1,4,4,5,5,8,8],"right_children":[2,4,-1,-1,6,8,-1,-1,10,-1,-1],"split_conditions":[6E1,8.05E1,2.408039E-2,1.6957235E-2,1.33E2,7.4E1,1.7142348E-2,-4.02451E-2,2.89E1,7.447649E-3,-3.296629E-2],"split_indices":[2,5,0,0,5,1,0,0,0,0,0],"split_type":[0,0,0,0,0,0,0,0,0,0,0],"sum_hessian":[1.03506424E2,9.108141E1,1.242501E1,2.1385544E1,6.969587E1,5.4255455E1,1.5440409E1,2.0559446E1,3.369601E1,2.1585993E1,1.2110018E1],"tree_param":{"num_deleted":"0","num_feature":"12","num_nodes":"11","size_leaf_vector":"1"}},{"base_weights":[-1.1956552E-2,-2.6249487E-2,6.014087E-2,-1.1354217E-1,2.6538584E-1,8.348547E-2,-3.0041749E-2,4.6919745E-1,-9.737724E-3,-2.0230802E-2,2.4755899E-2,1.1535963E-2,4.0544327E-2],"categories":[],"categories_nodes":[],"categories_segments":[],"categories_sizes":[],"default_left":[0,0,0,0,0,0,0,0,0,0,0,0,0],"id":36,"left_children":[1,-1,3,5,7,9,-1,11,-1,-1,-1,-1,-1],"loss_changes":[3.234377E0,0E0,3.2524576E0,3.823851E0,3.7119653E0,4.7995696E0,0E0,1.4961882E0,0E0,0E0,0E0,0E0,0E0],"parents":[2147483647,0,0,2,2,3,3,4,4,5,5,7,7],"right_children":[2,-1,4,6,8,10,-1,12,-1,-1,-1,-1,-1],"split_conditions":[3E0,-2.6249487E-2,7.6E1,7.1E1,2.98E1,1E0,-3.0041749E-2,2.52E1,-9.737724E-3,-2.0230802E-2,2.4755899E-2,1.1535963E-2,4.0544327E-2],"split_indices":[11,0,1,1,0,3,0,0,0,0,0,0,0],"split_type":[0,0,0,0,0,0,0,0,0,0,0,0,0],"sum_hessian":[1.0370072E2,1.4306764E1,8.939396E1,4.866192E1,4.073204E1,3.2751396E1,1.59105215E1,2.7515652E1,1.3216389E1,1.4360673E1,1.8390724E1,1.2545133E1,1.497052E1],"tree_param":{"num_deleted":"0","num_feature":"12","num_nodes":"13","size_leaf_vector":"1"}},{"base_weights":[2.0588327E-2,-2.6014611E-2,9.935011E-2,3.4729604E-2,1.0086246E-2,-3.0827338E-1,2.2847986E-1,-3.3137232E-2,2.05617E-3,-1.2260152E-2,3.98503E-1,5.0605126E-2,4.3308632E-3],"categories":[],"categories_nodes":[],"categories_segments":[],"categories_sizes":[],"default_left":[0,0,0,0,0,0,0,0,0,0,0,0,0],"id":37,"left_children":[1,-1,3,-1,5,7,9,-1,-1,-1,11,-1,-1],"loss_changes":[3.7526426E0,0E0,3.8096635E0,0E0,5.373225E0,2.6405425E0,3.4505093E0,0E0,0E0,0E0,4.752817E0,0E0,0E0],"parents":[2147483647,0,0,2,2,4,4,5,5,6,6,10,10],"right_children":[2,-1,4,-1,6,8,10,-1,-1,-1,12,-1,-1],"split_conditions":[3E0,-2.6014611E-2,7.1E1,3.4729604E-2,1.033E2,4.7E1,4E0,-3.3137232E-2,2.05617E-3,-1.2260152E-2,4.31E1,5.0605126E-2,4.3308632E-3],"split_indices":[11,0,5,0,5,2,11,0,0,0,2,0,0],"split_type":[0,0,0,0,0,0,0,0,0,0,0,0,0],"sum_hessian":[1.0282865E2,1.4547124E1,8.8281525E1,1.3012783E1,7.5268745E1,3.045782E1,4.4810925E1,1.7450092E1,1.300773E1,1.2587181E1,3.2223743E1,1.2985285E1,1.9238457E1],"tree_param":{"num_deleted":"0","num_feature":"12","num_nodes":"13","size_leaf_vector":"1"}},{"base_weights":[4.43559E-2,2.513893E-2,-7.266033E-2,-2.8877792E-1,6.572251E-2,1.0595993E-2,-4.2609993E-2,2.0068575E-2,-6.575482E-2,-1.4660898E-2,9.420625E-3],"categories":[],"categories_nodes":[],"categories_segments":[],"categories_sizes":[],"default_left":[0,0,0,0,0,0,0,0,0,0,0],"id":38,"left_children":[1,-1,3,5,7,-1,-1,-1,9,-1,-1],"loss_changes":[4.505384E0,0E0,2.3732462E0,6.1719785E0,1.7438262E0,0E0,0E0,0E0,1.371232E0,0E0,0E0],"parents":[2147483647,0,0,2,2,3,3,4,4,8,8],"right_children":[2,-1,4,6,8,-1,-1,-1,10,-1,-1],"split_conditions":[8.05E1,2.513893E-2,4E0,2.6E1,3.9E1,1.0595993E-2,-4.2609993E-2,2.0068575E-2,2.63E1,-1.4660898E-2,9.420625E-3],"split_indices":[5,0,11,0,2,0,0,0,0,0,0],"split_type":[0,0,0,0,0,0,0,0,0,0,0],"sum_hessian":[1.0122391E2,2.3504215E1,7.7719696E1,2.9914427E1,4.7805267E1,1.44787245E1,1.5435701E1,1.5213887E1,3.259138E1,1.8042215E1,1.4549166E1],"tree_param":{"num_deleted":"0","num_feature":"12","num_nodes":"11","size_leaf_vector":"1"}},{"base_weights":[-7.503503E-2,-2.980253E-2,7.136603E-3,1.8135566E-2,-9.623247E-2,-2.4929056E-1,8.781227E-2,1.1951099E-2,-3.5759374E-2,2.9891508E-2,-2.3190608E-2],"categories":[],"categories_nodes":[],"categories_segments":[],"categories_sizes":[],"default_left":[0,0,0,0,0,0,0,0,0,0,0],"id":39,"left_children":[1,-1,3,-1,5,7,9,-1,-1,-1,-1],"loss_changes":[3.4894032E0,0E0,2.6274924E0,0E0,1.8219128E0,5.568576E0,5.968823E0,0E0,0E0,0E0,0E0],"parents":[2147483647,0,0,2,2,4,4,5,5,6,6],"right_children":[2,-1,4,-1,6,8,10,-1,-1,-1,-1],"split_conditions":[5.7E1,-2.980253E-2,3.6E1,1.8135566E-2,1.399E2,7E1,4.86E1,1.1951099E-2,-3.5759374E-2,2.9891508E-2,-2.3190608E-2],"split_indices":[9,0,2,0,6,9,2,0,0,0,0],"split_type":[0,0,0,0,0,0,0,0,0,0,0],"sum_hessian":[9.975112E1,1.5465794E1,8.4285324E1,2.1385727E1,6.2899597E1,3.414713E1,2.8752468E1,1.5060033E1,1.9087097E1,1.5391999E1,1.3360469E1],"tree_param":{"num_deleted":"0","num_feature":"12","num_nodes":"11","size_leaf_vector":"1"}},{"base_weights":[-4.1520607E-2,-2.954501E-1,9.136993E-2,-2.350366E-4,-2.8343927E-2,3.160541E-2,-5.0540455E-2,-2.1127866E-1,2.3184897E-2,3.3538684E-3,-2.5989087E-2],"categories":[],"categories_nodes":[],"categories_segments":[],"categories_sizes":[],"default_left":[0,0,0,0,0,0,0,0,0,0,0],"id":40,"left_children":[1,3,5,-1,-1,-1,7,9,-1,-1,-1],"loss_changes":[3.412481E0,1.7824202E0,4.13676E0,0E0,0E0,0E0,3.6694002E0,2.2719827E0,0E0,0E0,0E0],"parents":[2147483647,0,0,1,1,2,2,6,6,7,7],"right_children":[2,4,6,-1,-1,-1,8,10,-1,-1,-1],"split_conditions":[1.28E2,2.5E1,8.05E1,-2.350366E-4,-2.8343927E-2,3.160541E-2,1.298E2,1E0,2.3184897E-2,3.3538684E-3,-2.5989087E-2],"split_indices":[6,0,5,0,0,0,5,10,0,0,0],"split_type":[0,0,0,0,0,0,0,0,0,0,0],"sum_hessian":[9.932609E1,3.370285E1,6.562324E1,1.3088554E1,2.0614296E1,1.548352E1,5.0139713E1,3.7021805E1,1.311791E1,1.7115005E1,1.99068E1],"tree_param":{"num_deleted":"0","num_feature":"12","num_nodes":"11","size_leaf_vector":"1"}},{"base_weights":[2.2223279E-2,3.3703732E-1,-9.6592E-2,1.1355892E-3,3.8140222E-2,-2.0764646E-1,2.4019713E-2,1.1839817E-2,-3.1938043E-1,-3.2129943E-2,-1.4588201E-1,7.1305265E-3,-2.5817158E-2],"categories":[],"categories_nodes":[],"categories_segments":[],"categories_sizes":[],"default_left":[0,0,0,0,0,0,0,0,0,0,0,0,0],"id":41,"left_children":[1,3,5,-1,-1,7,-1,-1,9,-1,11,-1,-1],"loss_changes":[3.8762505E0,2.6770148E0,4.238739E0,0E0,0E0,2.8783965E0,0E0,0E0,1.7599969E0,0E0,2.1999142E0,0E0,0E0],"parents":[2147483647,0,0,1,1,2,2,5,5,8,8,10,10],"right_children":[2,4,6,-1,-1,8,-1,-1,10,-1,12,-1,-1],"split_conditions":[3.7E1,7.4E1,1.406E2,1.1355892E-3,3.8140222E-2,8E1,2.4019713E-2,1.1839817E-2,7.7E1,-3.2129943E-2,8.6E1,7.1305265E-3,-2.5817158E-2],"split_indices":[2,1,5,0,0,5,0,0,1,0,1,0,0],"split_type":[0,0,0,0,0,0,0,0,0,0,0,0,0],"sum_hessian":[1.0175964E2,2.7379095E1,7.438055E1,1.3752752E1,1.3626343E1,6.125819E1,1.3122355E1,1.3087574E1,4.8170616E1,2.055843E1,2.7612186E1,1.4592895E1,1.3019293E1],"tree_param":{"num_deleted":"0","num_feature":"12","num_nodes":"13","size_leaf_vector":"1"}},{"base_weights":[1.1620367E-3,-1.7046753E-1,1.0925274E-1,7.5834733E-3,-3.2112762E-2,3.2356765E-2,-1.852179E-2,-1.5192302E-2,1.9431882E-1,-1.417938E-3,2.4904147E-2],"categories":[],"categories_nodes":[],"categories_segments":[],"categories_sizes":[],"default_left":[0,0,0,0,0,0,0,0,0,0,0],"id":42,"left_children":[1,3,5,-1,-1,-1,7,-1,9,-1,-1],"loss_changes":[1.8787253E0,4.295044E0,3.418493E0,0E0,0E0,0E0,2.4858234E0,0E0,1.2655433E0,0E0,0E0],"parents":[2147483647,0,0,1,1,2,2,6,6,8,8],"right_children":[2,4,6,-1,-1,-1,8,-1,10,-1,-1],"split_conditions":[6.6E1,1.38E2,2.57E1,7.5834733E-3,-3.2112762E-2,3.2356765E-2,1.01E2,-1.5192302E-2,7.9E1,-1.417938E-3,2.4904147E-2],"split_indices":[9,6,0,0,0,0,5,0,1,0,0],"split_type":[0,0,0,0,0,0,0,0,0,0,0],"sum_hessian":[9.926657E1,3.8136017E1,6.113055E1,2.1372236E1,1.6763779E1,1.3282552E1,4.7848E1,2.268283E1,2.516517E1,1.3097727E1,1.2067443E1],"tree_param":{"num_deleted":"0","num_feature":"12","num_nodes":"11","size_leaf_vector":"1"}},{"base_weights":[-5.867527E-3,-9.322233E-2,2.0548705E-2,-3.475644E-1,4.8287433E-2,-5.174699E-3,-3.326683E-2,2.9396119E-2,-1.0539187E-1,-2.7682444E-1,1.2407724E-2,-6.1166873E-3,-2.617309E-2],"categories":[],"categories_nodes":[],"categories_segments":[],"categories_sizes":[],"default_left":[0,0,0,0,0,0,0,0,0,0,0,0,0],"id":43,"left_children":[1,3,-1,5,7,-1,-1,-1,9,11,-1,-1,-1],"loss_changes":[3.0425572E0,2.8948932E0,0E0,1.4997892E0,3.5934837E0,0E0,0E0,0E0,2.173519E0,6.775261E-1,0E0,0E0,0E0],"parents":[2147483647,0,0,1,1,3,3,4,4,8,8,9,9],"right_children":[2,4,-1,6,8,-1,-1,-1,10,12,-1,-1,-1],"split_conditions":[5E0,7.4E1,2.0548705E-2,6.6E1,7.8E1,-5.174699E-3,-3.326683E-2,2.9396119E-2,1.46E2,7.2E1,1.2407724E-2,-6.1166873E-3,-2.617309E-2],"split_indices":[11,1,0,1,1,0,0,0,6,9,0,0,0],"split_type":[0,0,0,0,0,0,0,0,0,0,0,0,0],"sum_hessian":[9.805997E1,7.896552E1,1.9094442E1,2.770819E1,5.1257336E1,1.2842792E1,1.4865398E1,1.268091E1,3.8576424E1,2.4967268E1,1.3609158E1,1.2660276E1,1.2306992E1],"tree_param":{"num_deleted":"0","num_feature":"12","num_nodes":"13","size_leaf_vector":"1"}},{"base_weights":[-1.6882058E-2,-2.344333E-2,5.23203E-2,-2.574636E-2,2.298905E-2,8.600845E-2,-2.4407048E-2,-6.1705303E-3,2.2820622E-1,3.6135282E-2,-4.3230974E-3],"categories":[],"categories_nodes":[],"categories_segments":[],"categories_sizes":[],"default_left":[0,0,0,0,0,0,0,0,0,0,0],"id":44,"left_children":[1,-1,3,5,-1,7,-1,-1,9,-1,-1],"loss_changes":[2.5728488E0,0E0,2.1819537E0,2.971891E0,0E0,1.4782014E0,0E0,0E0,3.5422063E0,0E0,0E0],"parents":[2147483647,0,0,2,2,3,3,5,5,8,8],"right_children":[2,-1,4,6,-1,8,-1,-1,10,-1,-1],"split_conditions":[3E0,-2.344333E-2,1.71E2,1.65E2,2.298905E-2,2.59E1,-2.4407048E-2,-6.1705303E-3,3E1,3.6135282E-2,-4.3230974E-3],"split_indices":[11,0,4,4,0,0,0,0,0,0,0],"split_type":[0,0,0,0,0,0,0,0,0,0,0],"sum_hessian":[9.779011E1,1.4566024E1,8.322408E1,6.806217E1,1.5161907E1,5.3209507E1,1.4852666E1,2.298366E1,3.022585E1,1.3024414E1,1.7201435E1],"tree_param":{"num_deleted":"0","num_feature":"12","num_nodes":"11","size_leaf_vector":"1"}},{"base_weights":[2.7355323E-2,-2.5663368E-2,1.0956859E-1,-5.4263626E-3,2.3063943E-2,2.8122025E-2,-1.6057521E-1,-3.8133714E-1,6.3511897E-3,-7.5385594E-3,-3.610823E-2],"categories":[],"categories_nodes":[],"categories_segments":[],"categories_sizes":[],"default_left":[0,0,0,0,0,0,0,0,0,0,0],"id":45,"left_children":[1,-1,3,5,-1,-1,7,9,-1,-1,-1],"loss_changes":[3.7636814E0,0E0,2.6845078E0,4.549312E0,0E0,0E0,2.7806692E0,1.3694658E0,0E0,0E0,0E0],"parents":[2147483647,0,0,2,2,3,3,6,6,7,7],"right_children":[2,-1,4,6,-1,-1,8,10,-1,-1,-1],"split_conditions":[3E0,-2.5663368E-2,1.46E2,2.32E1,2.3063943E-2,2.8122025E-2,2.8E1,9.92E1,6.3511897E-3,-7.5385594E-3,-3.610823E-2],"split_indices":[11,0,6,0,0,0,0,5,0,0,0],"split_type":[0,0,0,0,0,0,0,0,0,0,0],"sum_hessian":[9.846246E1,1.4438425E1,8.402403E1,5.9897915E1,2.412612E1,1.4283836E1,4.561408E1,2.4703047E1,2.0911032E1,1.21389065E1,1.256414E1],"tree_param":{"num_deleted":"0","num_feature":"12","num_nodes":"11","size_leaf_vector":"1"}},{"base_weights":[-1.6568238E-2,2.1813707E-1,-1.2563471E-1,-6.080989E-3,3.1178903E-2,-2.4079775E-2,1.1997159E-2,1.6458498E-2,-2.0792869E-1,-3.0369157E-2,7.868888E-3],"categories":[],"categories_nodes":[],"categories_segments":[],"categories_sizes":[],"default_left":[0,0,0,0,0,0,0,0,0,0,0],"id":46,"left_children":[1,3,5,-1,-1,-1,7,-1,9,-1,-1],"loss_changes":[2.6497664E0,3.210493E0,2.6778913E0,0E0,0E0,0E0,2.8234224E0,0E0,2.756287E0,0E0,0E0],"parents":[2147483647,0,0,1,1,2,2,6,6,8,8],"right_children":[2,4,6,-1,-1,-1,8,-1,10,-1,-1],"split_conditions":[3.74E1,7.5E1,4.5E1,-6.080989E-3,3.1178903E-2,-2.4079775E-2,5.3E1,1.6458498E-2,6E1,-3.0369157E-2,7.868888E-3],"split_indices":[2,1,2,0,0,0,2,0,2,0,0],"split_type":[0,0,0,0,0,0,0,0,0,0,0],"sum_hessian":[1.0144205E2,3.1866653E1,6.957539E1,1.578003E1,1.6086622E1,2.255813E1,4.701726E1,2.1345455E1,2.5671804E1,1.3407421E1,1.2264384E1],"tree_param":{"num_deleted":"0","num_feature":"12","num_nodes":"11","size_leaf_vector":"1"}},{"base_weights":[2.7177187E-2,-5.8377497E-2,2.3820795E-2,-2.2069287E-2,7.5255544E-3,1.4702587E-2,-6.1344422E-2,7.9718366E-2,-1.6845373E-2,2.4726711E-2,-7.4235327E-3],"categories":[],"categories_nodes":[],"categories_segments":[],"categories_sizes":[],"default_left":[0,0,0,0,0,0,0,0,0,0,0],"id":47,"left_children":[1,3,-1,-1,5,-1,7,9,-1,-1,-1],"loss_changes":[3.2052212E0,1.6854521E0,0E0,0E0,1.1436825E0,0E0,1.7016045E0,2.3336086E0,0E0,0E0,0E0],"parents":[2147483647,0,0,1,1,4,4,6,6,7,7],"right_children":[2,4,-1,-1,6,-1,8,10,-1,-1,-1],"split_conditions":[5E0,3E0,2.3820795E-2,-2.2069287E-2,1.55E2,1.4702587E-2,1E0,2.51E1,-1.6845373E-2,2.4726711E-2,-7.4235327E-3],"split_indices":[11,11,0,0,4,0,10,0,0,0,0],"split_type":[0,0,0,0,0,0,0,0,0,0,0],"sum_hessian":[9.9702126E1,8.163421E1,1.8067915E1,1.354665E1,6.808756E1,1.4745458E1,5.3342102E1,3.283464E1,2.0507462E1,1.2083341E1,2.0751299E1],"tree_param":{"num_deleted":"0","num_feature":"12","num_nodes":"11","size_leaf_vector":"1"}},{"base_weights":[8.022733E-2,-7.841863E-2,2.7611905E-1,1.6864635E-1,-3.4600076E-1,9.735142E-2,3.320207E-2,3.0151932E-2,-1.194004E-2,-3.5904665E-2,-6.190325E-3,1.6069068E-2,-2.6272333E-3],"categories":[],"categories_nodes":[],"categories_segments":[],"categories_sizes":[],"default_left":[0,0,0,0,0,0,0,0,0,0,0,0,0],"id":48,"left_children":[1,3,5,7,9,11,-1,-1,-1,-1,-1,-1,-1],"loss_changes":[3.182017E0,3.8244557E0,2.2068875E0,3.8086073E0,1.630609E0,7.074778E-1,0E0,0E0,0E0,0E0,0E0,0E0,0E0],"parents":[2147483647,0,0,1,1,2,2,3,3,4,4,5,5],"right_children":[2,4,6,8,10,12,-1,-1,-1,-1,-1,-1,-1],"split_conditions":[1E0,1.38E2,7.6E1,1.111E2,9.97E1,7.1E1,3.320207E-2,3.0151932E-2,-1.194004E-2,-3.5904665E-2,-6.190325E-3,1.6069068E-2,-2.6272333E-3],"split_indices":[3,6,9,5,5,1,0,0,0,0,0,0,0],"split_type":[0,0,0,0,0,0,0,0,0,0,0,0,0],"sum_hessian":[1.0069322E2,5.5967087E1,4.4726135E1,2.929139E1,2.66757E1,2.7987219E1,1.6738914E1,1.5167333E1,1.4124056E1,1.2385925E1,1.4289775E1,1.2281318E1,1.5705901E1],"tree_param":{"num_deleted":"0","num_feature":"12","num_nodes":"13","size_leaf_vector":"1"}},{"base_weights":[1.0974206E-2,-1.5133595E-1,2.1607919E-1,7.846931E-2,-4.1276473E-1,3.3173367E-2,3.1703923E-2,2.5772562E-2,-1.4266331E-2,-4.5406777E-2,-1.7636922E-3,-8.863211E-3,1.0760744E-2],"categories":[],"categories_nodes":[],"categories_segments":[],"categories_sizes":[],"default_left":[0,0,0,0,0,0,0,0,0,0,0,0,0],"id":49,"left_children":[1,3,5,7,9,11,-1,-1,-1,-1,-1,-1,-1],"loss_changes":[3.381839E0,3.4417107E0,2.5394073E0,3.5397086E0,3.4907904E0,8.000661E-1,0E0,0E0,0E0,0E0,0E0,0E0,0E0],"parents":[2147483647,0,0,1,1,2,2,3,3,4,4,5,5],"right_children":[2,4,6,8,10,12,-1,-1,-1,-1,-1,-1,-1],"split_conditions":[1E0,1.38E2,7.6E1,2.5E1,1.053E2,1.58E2,3.1703923E-2,2.5772562E-2,-1.4266331E-2,-4.5406777E-2,-1.7636922E-3,-8.863211E-3,1.0760744E-2],"split_indices":[3,6,9,0,5,4,0,0,0,0,0,0,0],"split_type":[0,0,0,0,0,0,0,0,0,0,0,0,0],"sum_hessian":[9.960306E1,5.5748524E1,4.385453E1,3.0041136E1,2.570739E1,2.8333036E1,1.5521495E1,1.4071306E1,1.596983E1,1.3054696E1,1.2652694E1,1.2654161E1,1.5678875E1],"tree_param":{"num_deleted":"0","num_feature":"12","num_nodes":"13","size_leaf_vector":"1"}},{"base_weights":[-9.172645E-2,1.87474E-2,-2.821643E-1,-8.829815E-2,2.7390247E-2,-1.266711E-3,-3.5142276E-2,6.500762E-2,-2.3463897E-2,-1.2898803E-2,1.6453093E-2],"categories":[],"categories_nodes":[],"categories_segments":[],"categories_sizes":[],"default_left":[0,0,0,0,0,0,0,0,0,0,0],"id":50,"left_children":[1,3,5,7,-1,-1,-1,9,-1,-1,-1],"loss_changes":[2.1459637E0,3.0977616E0,2.9458406E0,2.496306E0,0E0,0E0,0E0,2.1758258E0,0E0,0E0,0E0],"parents":[2147483647,0,0,1,1,2,2,3,3,7,7],"right_children":[2,4,6,8,-1,-1,-1,10,-1,-1,-1],"split_conditions":[4.91E1,4.44E1,2.6E1,3.9E1,2.7390247E-2,-1.266711E-3,-3.5142276E-2,8.64E1,-2.3463897E-2,-1.2898803E-2,1.6453093E-2],"split_indices":[2,2,0,2,0,0,0,5,0,0,0],"split_type":[0,0,0,0,0,0,0,0,0,0,0],"sum_hessian":[1.0075077E2,6.433266E1,3.6418106E1,5.23201E1,1.2012561E1,2.0131039E1,1.628707E1,3.5235035E1,1.7085064E1,1.5050817E1,2.018422E1],"tree_param":{"num_deleted":"0","num_feature":"12","num_nodes":"11","size_leaf_vector":"1"}},{"base_weights":[4.9426362E-2,-4.0282566E-2,2.686098E-2,1.807864E-2,-1.3894385E-1,-3.0938882E-1,9.038363E-3,9.723374E-4,-3.7627764E-2],"categories":[],"categories_nodes":[],"categories_segments":[],"categories_sizes":[],"default_left":[0,0,0,0,0,0,0,0,0],"id":51,"left_children":[1,3,-1,-1,5,7,-1,-1,-1],"loss_changes":[3.5054471E0,2.7577722E0,0E0,0E0,3.1671696E0,4.1525846E0,0E0,0E0,0E0],"parents":[2147483647,0,0,1,1,4,4,5,5],"right_children":[2,4,-1,-1,6,8,-1,-1,-1],"split_conditions":[5E0,3.42E1,2.686098E-2,1.807864E-2,1E0,7E1,9.038363E-3,9.723374E-4,-3.7627764E-2],"split_indices":[11,2,0,0,3,9,0,0,0],"split_type":[0,0,0,0,0,0,0,0,0],"sum_hessian":[9.674995E1,7.967611E1,1.707384E1,1.7410866E1,6.2265244E1,3.914246E1,2.3122786E1,1.9776917E1,1.9365543E1],"tree_param":{"num_deleted":"0","num_feature":"12","num_nodes":"9","size_leaf_vector":"1"}},{"base_weights":[-2.4722625E-2,-1.9456493E-2,2.299743E-2,-7.111485E-2,2.0935595E-1,-2.5651082E-1,1.5218642E-1,-7.822135E-3,3.3390462E-2,5.548259E-3,-4.5054134E-2,-8.107731E-3,2.5327185E-2],"categories":[],"categories_nodes":[],"categories_segments":[],"categories_sizes":[],"default_left":[0,0,0,0,0,0,0,0,0,0,0,0,0],"id":52,"left_children":[1,-1,3,5,7,9,11,-1,-1,-1,-1,-1,-1],"loss_changes":[1.4510319E0,0E0,1.5608443E0,2.4946208E0,3.5818086E0,5.7124133E0,2.1869442E0,0E0,0E0,0E0,0E0,0E0,0E0],"parents":[2147483647,0,0,2,2,3,3,4,4,5,5,6,6],"right_children":[2,-1,4,6,8,10,12,-1,-1,-1,-1,-1,-1],"split_conditions":[3E0,-1.9456493E-2,2.85E1,7.6E1,1.033E2,2.5E1,2.46E1,-7.822135E-3,3.3390462E-2,5.548259E-3,-4.5054134E-2,-8.107731E-3,2.5327185E-2],"split_indices":[11,0,0,1,5,0,0,0,0,0,0,0,0],"split_type":[0,0,0,0,0,0,0,0,0,0,0,0,0],"sum_hessian":[1.0012414E2,1.2978358E1,8.714578E1,5.8314816E1,2.8830967E1,3.1780403E1,2.653441E1,1.487561E1,1.3955358E1,1.9094019E1,1.2686383E1,1.3085896E1,1.3448516E1],"tree_param":{"num_deleted":"0","num_feature":"12","num_nodes":"13","size_leaf_vector":"1"}},{"base_weights":[-9.505383E-3,-8.972267E-2,2.0204727E-2,-1.4784521E-1,1.010286E-2,-4.7868837E-2,-2.7449992E-2,7.143833E-2,-2.2347474E-2,-9.631027E-3,1.8781025E-2],"categories":[],"categories_nodes":[],"categories_segments":[],"categories_sizes":[],"default_left":[0,0,0,0,0,0,0,0,0,0,0],"id":53,"left_children":[1,3,-1,5,-1,7,-1,9,-1,-1,-1],"loss_changes":[2.6923316E0,1.2042904E0,0E0,1.978799E0,0E0,1.9615455E0,0E0,2.1414182E0,0E0,0E0,0E0],"parents":[2147483647,0,0,1,1,3,3,5,5,7,7],"right_children":[2,4,-1,6,-1,8,-1,10,-1,-1,-1],"split_conditions":[5E0,5.7E1,2.0204727E-2,4.91E1,1.010286E-2,1.7E2,-2.7449992E-2,1.02E2,-2.2347474E-2,-9.631027E-3,1.8781025E-2],"split_indices":[11,2,0,2,0,4,0,5,0,0,0],"split_type":[0,0,0,0,0,0,0,0,0,0,0],"sum_hessian":[9.496246E1,7.768385E1,1.7278606E1,6.3744278E1,1.3939577E1,4.9037495E1,1.4706783E1,3.64136E1,1.2623893E1,1.8740946E1,1.7672655E1],"tree_param":{"num_deleted":"0","num_feature":"12","num_nodes":"11","size_leaf_vector":"1"}},{"base_weights":[8.464584E-2,3.2560536E-1,-5.0738286E-2,3.7084608E-3,4.2124204E-2,2.0281693E-1,-2.3211916E-1,3.2626826E-2,-9.956135E-3,1.9254629E-4,-3.2605756E-2],"categories":[],"categories_nodes":[],"categories_segments":[],"categories_sizes":[],"default_left":[0,0,0,0,0,0,0,0,0,0,0],"id":54,"left_children":[1,3,5,-1,-1,7,9,-1,-1,-1,-1],"loss_changes":[3.2233505E0,3.4748406E0,2.9814613E0,0E0,0E0,3.4939203E0,2.7548563E0,0E0,0E0,0E0,0E0],"parents":[2147483647,0,0,1,1,2,2,5,5,6,6],"right_children":[2,4,6,-1,-1,8,10,-1,-1,-1,-1],"split_conditions":[7.12E1,4.44E1,1E0,3.7084608E-3,4.2124204E-2,1.41E2,5.14E1,3.2626826E-2,-9.956135E-3,1.9254629E-4,-3.2605756E-2],"split_indices":[1,2,10,0,0,6,2,0,0,0,0],"split_type":[0,0,0,0,0,0,0,0,0,0,0],"sum_hessian":[9.73024E1,3.4497673E1,6.280473E1,2.0946108E1,1.3551564E1,2.6142096E1,3.6662636E1,1.334591E1,1.2796186E1,2.142301E1,1.5239625E1],"tree_param":{"num_deleted":"0","num_feature":"12","num_nodes":"11","size_leaf_vector":"1"}},{"base_weights":[-2.9890805E-2,-2.4369879E-1,7.492623E-2,-2.353263E-3,-2.6465017E-2,-2.9984966E-2,2.0963779E-1,3.8891006E-2,3.5638545E-2,-1.8885513E-1,2.676582E-2,-2.1681262E-2,1.284016E-3],"categories":[],"categories_nodes":[],"categories_segments":[],"categories_sizes":[],"default_left":[0,0,0,0,0,0,0,0,0,0,0,0,0],"id":55,"left_children":[1,3,5,-1,-1,-1,7,-1,9,11,-1,-1,-1],"loss_changes":[2.242689E0,1.3067296E0,5.314451E0,0E0,0E0,0E0,4.1865797E0,0E0,3.8208296E0,9.8211515E-1,0E0,0E0,0E0],"parents":[2147483647,0,0,1,1,2,2,6,6,8,8,9,9],"right_children":[2,4,6,-1,-1,-1,8,-1,10,12,-1,-1,-1],"split_conditions":[8.9E1,7.2E1,6.7E1,-2.353263E-3,-2.6465017E-2,-2.9984966E-2,3.9E1,3.8891006E-2,1.31E2,2.64E1,2.676582E-2,-2.1681262E-2,1.284016E-3],"split_indices":[5,9,1,0,0,0,2,0,5,0,0,0,0],"split_type":[0,0,0,0,0,0,0,0,0,0,0,0,0],"sum_hessian":[9.8257385E1,3.1887533E1,6.636985E1,1.622624E1,1.5661292E1,1.2100457E1,5.4269398E1,1.4662279E1,3.9607117E1,2.5939789E1,1.3667329E1,1.3871109E1,1.206868E1],"tree_param":{"num_deleted":"0","num_feature":"12","num_nodes":"13","size_leaf_vector":"1"}},{"base_weights":[-2.4638076E-3,-1.9834761E-1,2.4807543E-1,4.975009E-3,-2.9307655E-1,3.4579914E-2,1.0205282E-1,-4.593518E-1,1.013839E-3,2.3266545E-2,-5.8799433E-3,-1.4923346E-2,-3.74225E-2],"categories":[],"categories_nodes":[],"categories_segments":[],"categories_sizes":[],"default_left":[0,0,0,0,0,0,0,0,0,0,0,0,0],"id":56,"left_children":[1,3,5,-1,7,-1,9,11,-1,-1,-1,-1,-1],"loss_changes":[5.064089E0,1.5664737E0,2.10698E0,0E0,2.251246E0,0E0,1.8932768E0,8.240948E-1,0E0,0E0,0E0,0E0,0E0],"parents":[2147483647,0,0,1,1,2,2,4,4,6,6,7,7],"right_children":[2,4,6,-1,8,-1,10,12,-1,-1,-1,-1,-1],"split_conditions":[1E0,1.24E2,7.51E1,4.975009E-3,1.46E2,3.4579914E-2,3.9E1,1.35E2,1.013839E-3,2.3266545E-2,-5.8799433E-3,-1.4923346E-2,-3.74225E-2],"split_indices":[3,6,5,0,6,0,2,6,0,0,0,0,0],"split_type":[0,0,0,0,0,0,0,0,0,0,0,0,0],"sum_hessian":[1.0118487E2,5.690336E1,4.428151E1,1.4372049E1,4.2531307E1,1.27470665E1,3.1534441E1,2.736777E1,1.516354E1,1.2608608E1,1.8925833E1,1.3053527E1,1.4314241E1],"tree_param":{"num_deleted":"0","num_feature":"12","num_nodes":"13","size_leaf_vector":"1"}},{"base_weights":[2.4900997E-2,2.3150975E-2,-8.3135635E-2,-3.0067545E-1,4.781748E-2,5.0172457E-3,-4.0337037E-2,-1.3212062E-1,1.699731E-2,-2.3197405E-2,9.927462E-3],"categories":[],"categories_nodes":[],"categories_segments":[],"categories_sizes":[],"default_left":[0,0,0,0,0,0,0,0,0,0,0],"id":57,"left_children":[1,-1,3,5,7,-1,-1,9,-1,-1,-1],"loss_changes":[3.7922964E0,0E0,2.154161E0,4.096219E0,2.0575507E0,0E0,0E0,2.158582E0,0E0,0E0,0E0],"parents":[2147483647,0,0,2,2,3,3,4,4,7,7],"right_children":[2,-1,4,6,8,-1,-1,10,-1,-1,-1],"split_conditions":[8.05E1,2.3150975E-2,4E0,1E0,2.65E1,5.0172457E-3,-4.0337037E-2,7.5E1,1.699731E-2,-2.3197405E-2,9.927462E-3],"split_indices":[5,0,11,10,0,0,0,1,0,0,0],"split_type":[0,0,0,0,0,0,0,0,0,0,0],"sum_hessian":[9.5556244E1,2.1443224E1,7.411302E1,2.7362413E1,4.6750607E1,1.3818475E1,1.354394E1,2.6731094E1,2.001951E1,1.4255372E1,1.2475722E1],"tree_param":{"num_deleted":"0","num_feature":"12","num_nodes":"11","size_leaf_vector":"1"}},{"base_weights":[2.5733265E-3,-4.399124E-2,1.8469557E-2,-1.3690047E-1,1.4687608E-2,-2.0705912E-2,-2.4710065E-2,-1.9939069E-2,1.6630013E-1,-6.2014554E-3,3.1150002E-2],"categories":[],"categories_nodes":[],"categories_segments":[],"categories_sizes":[],"default_left":[0,0,0,0,0,0,0,0,0,0,0],"id":58,"left_children":[1,3,-1,5,-1,7,-1,-1,9,-1,-1],"loss_changes":[1.439332E0,2.3921816E0,0E0,2.1344376E0,0E0,2.864181E0,0E0,0E0,2.9790072E0,0E0,0E0],"parents":[2147483647,0,0,1,1,3,3,5,5,8,8],"right_children":[2,4,-1,6,-1,8,-1,-1,10,-1,-1],"split_conditions":[6E1,8.5E1,1.8469557E-2,4.86E1,1.4687608E-2,1.28E2,-2.4710065E-2,-1.9939069E-2,2.74E1,-6.2014554E-3,3.1150002E-2],"split_indices":[2,1,0,2,0,6,0,0,0,0,0],"split_type":[0,0,0,0,0,0,0,0,0,0,0],"sum_hessian":[9.9436615E1,8.700369E1,1.2432923E1,6.620637E1,2.0797323E1,4.7267796E1,1.8938572E1,1.7451628E1,2.981617E1,1.729128E1,1.2524888E1],"tree_param":{"num_deleted":"0","num_feature":"12","num_nodes":"11","size_leaf_vector":"1"}},{"base_weights":[4.2992342E-2,1.2929232E-1,-1.8245487E-1,2.2350928E-2,8.09667E-3,-2.5801178E-2,6.3984194E-3,1.9880424E-1,-1.8271897E-2,2.2609396E-2,1.7742992E-3],"categories":[],"categories_nodes":[],"categories_segments":[],"categories_sizes":[],"default_left":[0,0,0,0,0,0,0,0,0,0,0],"id":59,"left_children":[1,3,5,-1,7,-1,-1,9,-1,-1,-1],"loss_changes":[1.9919901E0,2.166801E0,2.0745401E0,0E0,3.0505927E0,0E0,0E0,9.4394934E-1,0E0,0E0,0E0],"parents":[2147483647,0,0,1,1,2,2,4,4,7,7],"right_children":[2,4,6,-1,8,-1,-1,10,-1,-1,-1],"split_conditions":[2.99E1,3.9E1,1.04E2,2.2350928E-2,1.65E2,-2.5801178E-2,6.3984194E-3,1.075E2,-1.8271897E-2,2.2609396E-2,1.7742992E-3],"split_indices":[0,2,5,0,4,0,0,5,0,0,0],"split_type":[0,0,0,0,0,0,0,0,0,0,0],"sum_hessian":[1.001714E2,7.274972E1,2.7421692E1,2.3536167E1,4.9213547E1,1.452135E1,1.2900342E1,3.077864E1,1.8434906E1,1.4424824E1,1.6353819E1],"tree_param":{"num_deleted":"0","num_feature":"12","num_nodes":"11","size_leaf_vector":"1"}},{"base_weights":[-2.3328207E-2,-1.649273E-1,1.6634679E-1,-2.9604828E-2,-4.9677923E-2,2.48803E-2,-5.244827E-3,1.5565135E-1,-3.060044E-2,2.7703932E-2,-7.845175E-3],"categories":[],"categories_nodes":[],"categories_segments":[],"categories_sizes":[],"default_left":[0,0,0,0,0,0,0,0,0,0,0],"id":60,"left_children":[1,3,5,-1,7,-1,-1,9,-1,-1,-1],"loss_changes":[2.6143987E0,2.0784302E0,2.6553411E0,0E0,4.070942E0,0E0,0E0,2.6835327E0,0E0,0E0,0E0],"parents":[2147483647,0,0,1,1,2,2,4,4,7,7],"right_children":[2,4,6,-1,8,-1,-1,10,-1,-1,-1],"split_conditions":[1E0,7.1E1,1.61E2,-2.9604828E-2,5.3E1,2.48803E-2,-5.244827E-3,1.38E2,-3.060044E-2,2.7703932E-2,-7.845175E-3],"split_indices":[3,1,4,0,2,0,0,6,0,0,0],"split_type":[0,0,0,0,0,0,0,0,0,0,0],"sum_hessian":[9.5320724E1,5.4651737E1,4.0668983E1,1.336211E1,4.1289627E1,2.025138E1,2.0417603E1,2.8998434E1,1.2291195E1,1.3731609E1,1.5266824E1],"tree_param":{"num_deleted":"0","num_feature":"12","num_nodes":"11","size_leaf_vector":"1"}},{"base_weights":[7.963158E-2,-1.8442353E-2,1.5067723E-1,2.4818654E-1,-9.650701E-3,-7.5966264E-3,3.540534E-1,2.0621198E-1,4.5323417E-2,2.9182225E-2,-1.4305941E-2],"categories":[],"categories_nodes":[],"categories_segments":[],"categories_sizes":[],"default_left":[0,0,0,0,0,0,0,0,0,0,0],"id":61,"left_children":[1,-1,3,5,-1,-1,7,9,-1,-1,-1],"loss_changes":[2.7221036E0,0E0,2.5584488E0,2.5661118E0,0E0,0E0,2.7939858E0,4.8070374E0,0E0,0E0,0E0],"parents":[2147483647,0,0,2,2,3,3,6,6,7,7],"right_children":[2,-1,4,6,-1,-1,8,10,-1,-1,-1],"split_conditions":[3E0,-1.8442353E-2,2.99E1,5.7E1,-9.650701E-3,-7.5966264E-3,1.45E2,1.34E2,4.5323417E-2,2.9182225E-2,-1.4305941E-2],"split_indices":[11,0,0,9,0,0,6,6,0,0,0],"split_type":[0,0,0,0,0,0,0,0,0,0,0],"sum_hessian":[9.641781E1,1.4451833E1,8.196598E1,6.25709E1,1.9395079E1,1.37430105E1,4.882789E1,3.6767082E1,1.2060808E1,2.2511322E1,1.425576E1],"tree_param":{"num_deleted":"0","num_feature":"12","num_nodes":"11","size_leaf_vector":"1"}},{"base_weights":[5.269672E-2,1.4519002E-1,-2.7060373E-2,6.5637425E-2,2.8099606E-2,1.8606271E-1,-1.4766921E-2,2.993092E-2,5.009451E-2,2.2147233E-2,-1.3650403E-2],"categories":[],"categories_nodes":[],"categories_segments":[],"categories_sizes":[],"default_left":[0,0,0,0,0,0,0,0,0,0,0],"id":62,"left_children":[1,3,-1,5,-1,7,-1,-1,9,-1,-1],"loss_changes":[4.520618E0,2.0637827E0,0E0,2.5451083E0,0E0,2.0389607E0,0E0,0E0,3.1744308E0,0E0,0E0],"parents":[2147483647,0,0,1,1,3,3,5,5,8,8],"right_children":[2,4,-1,6,-1,8,-1,-1,10,-1,-1],"split_conditions":[1.55E2,1.45E2,-2.7060373E-2,1.38E2,2.8099606E-2,3.74E1,-1.4766921E-2,2.993092E-2,2.5E1,2.2147233E-2,-1.3650403E-2],"split_indices":[6,6,0,6,0,2,0,0,0,0,0],"split_type":[0,0,0,0,0,0,0,0,0,0,0],"sum_hessian":[9.473467E1,8.062472E1,1.4109957E1,6.563931E1,1.4985403E1,4.7626423E1,1.8012888E1,1.3641998E1,3.3984425E1,1.5662686E1,1.832174E1],"tree_param":{"num_deleted":"0","num_feature":"12","num_nodes":"11","size_leaf_vector":"1"}},{"base_weights":[-9.579011E-2,-2.1442617E-1,9.553685E-2,1.1742018E-2,-3.2608747E-1,-8.844515E-3,2.2953417E-2,-4.327436E-3,-4.584061E-1,-3.7831243E-2,-1.08633805E-2],"categories":[],"categories_nodes":[],"categories_segments":[],"categories_sizes":[],"default_left":[0,0,0,0,0,0,0,0,0,0,0],"id":63,"left_children":[1,3,5,-1,7,-1,-1,-1,9,-1,-1],"loss_changes":[2.2014396E0,2.7922938E0,2.6625516E0,0E0,1.554596E0,0E0,0E0,0E0,1.3540874E0,0E0,0E0],"parents":[2147483647,0,0,1,1,2,2,4,4,8,8],"right_children":[2,4,6,-1,8,-1,-1,-1,10,-1,-1],"split_conditions":[2.81E1,8E1,1.399E2,1.1742018E-2,2.3E1,-8.844515E-3,2.2953417E-2,-4.327436E-3,1.43E2,-3.7831243E-2,-1.08633805E-2],"split_indices":[0,5,6,0,0,0,0,0,6,0,0],"split_type":[0,0,0,0,0,0,0,0,0,0,0],"sum_hessian":[9.508457E1,5.861713E1,3.646744E1,1.2389123E1,4.622801E1,2.0005136E1,1.6462305E1,1.6360338E1,2.9867668E1,1.768389E1,1.2183779E1],"tree_param":{"num_deleted":"0","num_feature":"12","num_nodes":"11","size_leaf_vector":"1"}},{"base_weights":[6.5067695E-3,9.055158E-2,-2.1872649E-1,-4.630432E-2,1.8618831E-1,-2.5499111E-2,5.734653E-4,1.8012965E-2,-2.5616411E-2,-1.33205E-2,3.8682356E-1,1.0225736E-3,3.9218605E-2],"categories":[],"categories_nodes":[],"categories_segments":[],"categories_sizes":[],"default_left":[0,0,0,0,0,0,0,0,0,0,0,0,0],"id":64,"left_children":[1,3,5,7,9,-1,-1,-1,-1,-1,11,-1,-1],"loss_changes":[1.9394106E0,9.844627E-1,1.3119344E0,4.2684507E0,3.693998E0,0E0,0E0,0E0,0E0,0E0,2.931734E0,0E0,0E0],"parents":[2147483647,0,0,1,1,2,2,3,3,4,4,10,10],"right_children":[2,4,6,8,10,-1,-1,-1,-1,-1,12,-1,-1],"split_conditions":[2.99E1,7.3E1,1.021E2,2.5E1,2.35E1,-2.5499111E-2,5.734653E-4,1.8012965E-2,-2.5616411E-2,-1.33205E-2,1E2,1.0225736E-3,3.9218605E-2],"split_indices":[0,1,5,0,0,0,0,0,0,0,5,0,0],"split_type":[0,0,0,0,0,0,0,0,0,0,0,0,0],"sum_hessian":[1.00407104E2,7.3557434E1,2.684967E1,3.047032E1,4.3087112E1,1.3670129E1,1.3179543E1,1.6058031E1,1.441229E1,1.4170774E1,2.8916338E1,1.254299E1,1.6373348E1],"tree_param":{"num_deleted":"0","num_feature":"12","num_nodes":"13","size_leaf_vector":"1"}},{"base_weights":[1.3847439E-2,-5.4069698E-2,1.7352864E-2,1.3851502E-2,-1.5243708E-1,5.983606E-4,-2.9615724E-2,-2.232417E-1,2.7534503E-2,-2.4419758E-2,1.303422E-3],"categories":[],"categories_nodes":[],"categories_segments":[],"categories_sizes":[],"default_left":[0,0,0,0,0,0,0,0,0,0,0],"id":65,"left_children":[1,3,-1,-1,5,7,-1,9,-1,-1,-1],"loss_changes":[1.8475724E0,2.2610774E0,0E0,0E0,3.1107194E0,4.4238176E0,0E0,1.3103797E0,0E0,0E0,0E0],"parents":[2147483647,0,0,1,1,4,4,5,5,7,7],"right_children":[2,4,-1,-1,6,8,-1,10,-1,-1,-1],"split_conditions":[5E0,6.9E1,1.7352864E-2,1.3851502E-2,5.3E1,8.4E1,-2.9615724E-2,2.76E1,2.7534503E-2,-2.4419758E-2,1.303422E-3],"split_indices":[11,1,0,0,2,1,0,0,0,0,0],"split_type":[0,0,0,0,0,0,0,0,0,0,0],"sum_hessian":[9.708268E1,7.849941E1,1.8583267E1,1.9815735E1,5.868368E1,4.1177372E1,1.750631E1,2.7998178E1,1.31791935E1,1.5638736E1,1.2359444E1],"tree_param":{"num_deleted":"0","num_feature":"12","num_nodes":"11","size_leaf_vector":"1"}},{"base_weights":[-3.5707135E-2,-3.0245775E-2,4.4686906E-2,1.3167372E-1,-1.4017765E-2,2.3383644E-1,-1.479928E-2,4.090264E-2,4.2141044E-1,2.8099794E-2,-2.3934655E-2,6.874818E-3,4.159188E-2],"categories":[],"categories_nodes":[],"categories_segments":[],"categories_sizes":[],"default_left":[0,0,0,0,0,0,0,0,0,0,0,0,0],"id":66,"left_children":[1,-1,3,5,-1,7,-1,9,11,-1,-1,-1,-1],"loss_changes":[3.7068176E0,0E0,2.0748746E0,2.5686333E0,0E0,1.8537211E0,0E0,5.1730447E0,2.0919218E0,0E0,0E0,0E0,0E0],"parents":[2147483647,0,0,2,2,3,3,5,5,7,7,8,8],"right_children":[2,-1,4,6,-1,8,-1,10,12,-1,-1,-1,-1],"split_conditions":[3E0,-3.0245775E-2,1.51E2,2.99E1,-1.4017765E-2,7.3E1,-1.479928E-2,6.6E1,2.46E1,2.8099794E-2,-2.3934655E-2,6.874818E-3,4.159188E-2],"split_indices":[11,0,6,0,0,1,0,1,0,0,0,0,0],"split_type":[0,0,0,0,0,0,0,0,0,0,0,0,0],"sum_hessian":[9.6973724E1,1.3450645E1,8.352308E1,6.4019455E1,1.9503624E1,5.06991E1,1.3320356E1,2.559293E1,2.510617E1,1.2947913E1,1.2645017E1,1.2436852E1,1.2669318E1],"tree_param":{"num_deleted":"0","num_feature":"12","num_nodes":"13","size_leaf_vector":"1"}},{"base_weights":[-1.746873E-2,-2.14929E-2,3.7167754E-2,-1.4978078E-1,1.7080833E-1,-2.1559535E-2,1.162459E-2,3.6252448E-1,-1.3032499E-2,4.4641275E-2,-5.050357E-4],"categories":[],"categories_nodes":[],"categories_segments":[],"categories_sizes":[],"default_left":[0,0,0,0,0,0,0,0,0,0,0],"id":67,"left_children":[1,-1,3,5,7,-1,-1,9,-1,-1,-1],"loss_changes":[1.7990189E0,0E0,2.115806E0,2.6110334E0,3.7400737E0,0E0,0E0,4.711678E0,0E0,0E0,0E0],"parents":[2147483647,0,0,2,2,3,3,4,4,7,7],"right_children":[2,-1,4,6,8,-1,-1,10,-1,-1,-1],"split_conditions":[3E0,-2.14929E-2,7.3E1,4.44E1,5.2E1,-2.1559535E-2,1.162459E-2,7E1,-1.3032499E-2,4.4641275E-2,-5.050357E-4],"split_indices":[11,0,1,2,2,0,0,9,0,0,0],"split_type":[0,0,0,0,0,0,0,0,0,0,0],"sum_hessian":[9.504379E1,1.2381053E1,8.266274E1,3.4408394E1,4.825435E1,2.1355255E1,1.3053139E1,3.233283E1,1.5921521E1,1.5463852E1,1.6868977E1],"tree_param":{"num_deleted":"0","num_feature":"12","num_nodes":"11","size_leaf_vector":"1"}},{"base_weights":[-3.5169072E-2,-1.01363495E-1,1.5718903E-2,3.8664266E-2,-2.6433772E-1,-1.2759504E-1,2.5183138E-2,-2.9730814E-2,-5.5244225E-3,-1.8432297E-2,6.8407473E-3],"categories":[],"categories_nodes":[],"categories_segments":[],"categories_sizes":[],"default_left":[0,0,0,0,0,0,0,0,0,0,0],"id":68,"left_children":[1,3,-1,5,7,9,-1,-1,-1,-1,-1],"loss_changes":[1.9456227E0,1.849223E0,0E0,2.8508825E0,1.4396315E0,1.3998119E0,0E0,0E0,0E0,0E0,0E0],"parents":[2147483647,0,0,1,1,3,3,4,4,5,5],"right_children":[2,4,-1,6,8,10,-1,-1,-1,-1,-1],"split_conditions":[5E0,7.8E1,1.5718903E-2,7.4E1,8.4E1,4.48E1,2.5183138E-2,-2.9730814E-2,-5.5244225E-3,-1.8432297E-2,6.8407473E-3],"split_indices":[11,1,0,1,1,2,0,0,0,0,0],"split_type":[0,0,0,0,0,0,0,0,0,0,0],"sum_hessian":[9.667353E1,7.958408E1,1.7089445E1,4.321577E1,3.6368313E1,3.0538002E1,1.2677768E1,1.4758159E1,2.1610155E1,1.7372583E1,1.3165419E1],"tree_param":{"num_deleted":"0","num_feature":"12","num_nodes":"11","size_leaf_vector":"1"}},{"base_weights":[-4.5588336E-4,-2.7024675E-2,7.285959E-2,1.4083293E-1,-1.6570123E-2,1.799569E-2,4.0260863E-2,1.4759111E-1,-1.5315573E-2,-1.1683793E-2,3.458189E-1,8.61165E-3,3.156668E-2],"categories":[],"categories_nodes":[],"categories_segments":[],"categories_sizes":[],"default_left":[0,0,0,0,0,0,0,0,0,0,0,0,0],"id":69,"left_children":[1,-1,3,5,-1,7,-1,9,-1,-1,11,-1,-1],"loss_changes":[3.2037873E0,0E0,2.0204003E0,4.580419E0,0E0,2.1016588E0,0E0,2.793174E0,0E0,0E0,8.634565E-1,0E0,0E0],"parents":[2147483647,0,0,2,2,3,3,5,5,7,7,10,10],"right_children":[2,-1,4,6,-1,8,-1,10,-1,-1,12,-1,-1],"split_conditions":[3E0,-2.7024675E-2,1.55E2,1.45E2,-1.6570123E-2,1.66E2,4.0260863E-2,1.54E2,-1.5315573E-2,-1.1683793E-2,7.3E1,8.61165E-3,3.156668E-2],"split_indices":[11,0,6,6,0,4,0,4,0,0,1,0,0],"split_type":[0,0,0,0,0,0,0,0,0,0,0,0,0],"sum_hessian":[9.524428E1,1.2638657E1,8.260562E1,6.962823E1,1.2977396E1,5.7353134E1,1.2275092E1,3.9199673E1,1.8153461E1,1.4388521E1,2.4811152E1,1.2509526E1,1.2301624E1],"tree_param":{"num_deleted":"0","num_feature":"12","num_nodes":"13","size_leaf_vector":"1"}},{"base_weights":[3.0792523E-2,2.1686183E-2,-2.4631025E-2,3.837682E-2,-1.3226243E-2,-5.8010627E-2,2.4695797E-2,-1.6008722E-2,9.1493286E-2,2.5724329E-2,-1.5003202E-2],"categories":[],"categories_nodes":[],"categories_segments":[],"categories_sizes":[],"default_left":[0,0,0,0,0,0,0,0,0,0,0],"id":70,"left_children":[1,-1,3,5,-1,7,-1,-1,9,-1,-1],"loss_changes":[1.7965403E0,0E0,1.0504711E0,2.352403E0,0E0,1.6567852E0,0E0,0E0,3.6970534E0,0E0,0E0],"parents":[2147483647,0,0,2,2,3,3,5,5,8,8],"right_children":[2,-1,4,6,-1,8,-1,-1,10,-1,-1],"split_conditions":[3.2E1,2.1686183E-2,3.04E1,2.81E1,-1.3226243E-2,7.3E1,2.4695797E-2,-1.6008722E-2,1.41E2,2.5724329E-2,-1.5003202E-2],"split_indices":[2,0,0,0,0,1,0,0,6,0,0],"split_type":[0,0,0,0,0,0,0,0,0,0,0],"sum_hessian":[9.668312E1,1.3103572E1,8.3579544E1,6.381849E1,1.9761055E1,5.13762E1,1.2442288E1,2.113001E1,3.0246193E1,1.5095726E1,1.5150466E1],"tree_param":{"num_deleted":"0","num_feature":"12","num_nodes":"11","size_leaf_vector":"1"}},{"base_weights":[-3.646744E-3,1.955353E-2,-9.673562E-2,-2.2693051E-1,1.4424126E-2,3.7216803E-3,-4.3707976E-1,-1.43873645E-2,-4.1044492E-2],"categories":[],"categories_nodes":[],"categories_segments":[],"categories_sizes":[],"default_left":[0,0,0,0,0,0,0,0,0],"id":71,"left_children":[1,-1,3,5,-1,-1,7,-1,-1],"loss_changes":[3.0656145E0,0E0,3.473701E0,3.4720395E0,0E0,0E0,1.4400544E0,0E0,0E0],"parents":[2147483647,0,0,2,2,3,3,6,6],"right_children":[2,-1,4,6,-1,-1,8,-1,-1],"split_conditions":[8E1,1.955353E-2,1.31E2,1E0,1.4424126E-2,3.7216803E-3,1.57E2,-1.43873645E-2,-4.1044492E-2],"split_indices":[5,0,5,10,0,0,4,0,0],"split_type":[0,0,0,0,0,0,0,0,0],"sum_hessian":[9.802964E1,2.1062572E1,7.696707E1,5.574627E1,2.1220798E1,2.377257E1,3.1973701E1,1.8830563E1,1.3143139E1],"tree_param":{"num_deleted":"0","num_feature":"12","num_nodes":"9","size_leaf_vector":"1"}},{"base_weights":[6.5589376E-2,-2.4742765E-2,2.8330746E-1,1.1265634E-1,-2.1537526E-1,2.7611343E-2,6.3231243E-3,-7.547616E-3,1.8880079E-2,7.393466E-3,-2.7596524E-2],"categories":[],"categories_nodes":[],"categories_segments":[],"categories_sizes":[],"default_left":[0,0,0,0,0,0,0,0,0,0,0],"id":72,"left_children":[1,3,5,7,9,-1,-1,-1,-1,-1,-1],"loss_changes":[1.9068462E0,1.8366226E0,8.433919E-1,2.002947E0,2.4782085E0,0E0,0E0,0E0,0E0,0E0,0E0],"parents":[2147483647,0,0,1,1,2,2,3,3,4,4],"right_children":[2,4,6,8,10,-1,-1,-1,-1,-1,-1],"split_conditions":[1.221E2,7.3E1,1.59E2,7.5E1,1.63E2,2.7611343E-2,6.3231243E-3,-7.547616E-3,1.8880079E-2,7.393466E-3,-2.7596524E-2],"split_indices":[5,9,4,1,4,0,0,0,0,0,0],"split_type":[0,0,0,0,0,0,0,0,0,0,0],"sum_hessian":[9.56005E1,6.8193214E1,2.7407291E1,3.9867558E1,2.8325657E1,1.29765835E1,1.4430708E1,1.8444702E1,2.1422853E1,1.2073697E1,1.6251959E1],"tree_param":{"num_deleted":"0","num_feature":"12","num_nodes":"11","size_leaf_vector":"1"}},{"base_weights":[2.0198897E-3,-1.961322E-2,6.774061E-2,2.6225242E-1,-9.77698E-2,2.9176082E-2,-2.4695853E-3,-2.806267E-1,1.4542512E-2,-3.0137587E-2,-4.3149884E-3],"categories":[],"categories_nodes":[],"categories_segments":[],"categories_sizes":[],"default_left":[0,0,0,0,0,0,0,0,0,0,0],"id":73,"left_children":[1,-1,3,5,7,-1,-1,9,-1,-1,-1],"loss_changes":[2.0499468E0,0E0,2.5720778E0,2.5028136E0,2.7688313E0,0E0,0E0,1.2895479E0,0E0,0E0,0E0],"parents":[2147483647,0,0,2,2,3,3,4,4,7,7],"right_children":[2,-1,4,6,8,-1,-1,10,-1,-1,-1],"split_conditions":[5.7E1,-1.961322E-2,4.11E1,7.8E1,5.6E1,2.9176082E-2,-2.4695853E-3,1.38E2,1.4542512E-2,-3.0137587E-2,-4.3149884E-3],"split_indices":[9,0,2,1,2,0,0,6,0,0,0],"split_type":[0,0,0,0,0,0,0,0,0,0,0],"sum_hessian":[9.2927925E1,1.4830625E1,7.80973E1,3.563439E1,4.2462906E1,2.0175356E1,1.5459038E1,2.7721329E1,1.4741578E1,1.2784617E1,1.4936711E1],"tree_param":{"num_deleted":"0","num_feature":"12","num_nodes":"11","size_leaf_vector":"1"}},{"base_weights":[-1.1752574E-2,-9.220003E-2,2.3278572E-2,-1.9169464E-3,-2.3633093E-2,-1.701367E-1,1.7506267E-1,5.859947E-3,-2.4495987E-2,-1.3900276E-2,2.7440699E-2],"categories":[],"categories_nodes":[],"categories_segments":[],"categories_sizes":[],"default_left":[0,0,0,0,0,0,0,0,0,0,0],"id":74,"left_children":[1,3,-1,5,-1,7,9,-1,-1,-1,-1],"loss_changes":[3.1503608E0,2.2159576E0,0E0,1.9269278E0,0E0,2.1500754E0,3.7177365E0,0E0,0E0,0E0,0E0],"parents":[2147483647,0,0,1,1,3,3,5,5,6,6],"right_children":[2,4,-1,6,-1,8,10,-1,-1,-1,-1],"split_conditions":[5.7E1,4.91E1,2.3278572E-2,1.024E2,-2.3633093E-2,2.71E1,7.3E1,5.859947E-3,-2.4495987E-2,-1.3900276E-2,2.7440699E-2],"split_indices":[2,2,0,5,0,0,1,0,0,0,0],"split_type":[0,0,0,0,0,0,0,0,0,0,0],"sum_hessian":[9.597394E1,8.051859E1,1.5455343E1,6.272353E1,1.7795061E1,3.2177433E1,3.0546099E1,1.5408829E1,1.6768604E1,1.2577848E1,1.796825E1],"tree_param":{"num_deleted":"0","num_feature":"12","num_nodes":"11","size_leaf_vector":"1"}},{"base_weights":[5.2522207E-3,9.033654E-2,-1.5705125E-1,-1.1360323E-2,1.9070232E-1,1.1137163E-2,-2.3277516E-2,2.95665E-2,6.1837718E-2,-4.6154517E-3,1.6626304E-2],"categories":[],"categories_nodes":[],"categories_segments":[],"categories_sizes":[],"default_left":[0,0,0,0,0,0,0,0,0,0,0],"id":75,"left_children":[1,3,5,-1,7,-1,-1,-1,9,-1,-1],"loss_changes":[1.3704925E0,1.861052E0,2.7660453E0,0E0,1.8487463E0,0E0,0E0,0E0,1.0652773E0,0E0,0E0],"parents":[2147483647,0,0,1,1,2,2,4,4,8,8],"right_children":[2,4,6,-1,8,-1,-1,-1,10,-1,-1],"split_conditions":[4.91E1,6.3E1,6.2E1,-1.1360323E-2,7.1E1,1.1137163E-2,-2.3277516E-2,2.95665E-2,3.13E1,-4.6154517E-3,1.6626304E-2],"split_indices":[2,9,9,0,9,0,0,0,0,0,0],"split_type":[0,0,0,0,0,0,0,0,0,0,0],"sum_hessian":[9.72155E1,6.4070984E1,3.3144512E1,1.6697508E1,4.7373478E1,1.3410394E1,1.9734118E1,1.3342227E1,3.403125E1,2.1075819E1,1.2955432E1],"tree_param":{"num_deleted":"0","num_feature":"12","num_nodes":"11","size_leaf_vector":"1"}},{"base_weights":[-2.2858197E-2,-1.9493854E-2,3.7680052E-2,2.0238586E-2,-4.3085594E-2,-2.5325865E-1,9.740973E-2,-2.2606647E-2,-6.775513E-3,-6.8318406E-3,2.1748476E-2],"categories":[],"categories_nodes":[],"categories_segments":[],"categories_sizes":[],"default_left":[0,0,0,0,0,0,0,0,0,0,0],"id":76,"left_children":[1,-1,3,-1,5,7,9,-1,-1,-1,-1],"loss_changes":[1.7384402E0,0E0,1.9387808E0,0E0,1.902344E0,4.027338E-1,2.2107694E0,0E0,0E0,0E0,0E0],"parents":[2147483647,0,0,2,2,4,4,5,5,6,6],"right_children":[2,-1,4,-1,6,8,10,-1,-1,-1,-1],"split_conditions":[5.7E1,-1.9493854E-2,3.42E1,2.0238586E-2,4E0,4.6E1,1.41E2,-2.2606647E-2,-6.775513E-3,-6.8318406E-3,2.1748476E-2],"split_indices":[9,0,2,0,11,2,6,0,0,0,0],"split_type":[0,0,0,0,0,0,0,0,0,0,0],"sum_hessian":[9.3533066E1,1.4905524E1,7.862754E1,1.6038637E1,6.25889E1,2.4754684E1,3.7834217E1,1.2300847E1,1.2453838E1,2.1360859E1,1.6473358E1],"tree_param":{"num_deleted":"0","num_feature":"12","num_nodes":"11","size_leaf_vector":"1"}},{"base_weights":[4.412535E-2,1.5783025E-2,-2.5246816E-2,-1.9943804E-2,5.6448266E-2,-8.427833E-2,1.7701445E-2,4.7393185E-3,-2.2201616E-2],"categories":[],"categories_nodes":[],"categories_segments":[],"categories_sizes":[],"default_left":[0,0,0,0,0,0,0,0,0],"id":77,"left_children":[1,-1,3,-1,5,7,-1,-1,-1],"loss_changes":[1.4660587E0,0E0,1.872274E0,0E0,2.0115342E0,1.7995989E0,0E0,0E0,0E0],"parents":[2147483647,0,0,2,2,4,4,5,5],"right_children":[2,-1,4,-1,6,8,-1,-1,-1],"split_conditions":[8.05E1,1.5783025E-2,9.5E1,-1.9943804E-2,2.77E1,2.51E1,1.7701445E-2,4.7393185E-3,-2.2201616E-2],"split_indices":[5,0,5,0,0,0,0,0,0],"split_type":[0,0,0,0,0,0,0,0,0],"sum_hessian":[9.523926E1,2.2271824E1,7.296743E1,1.4702219E1,5.826521E1,3.703323E1,2.1231983E1,2.4019106E1,1.3014122E1],"tree_param":{"num_deleted":"0","num_feature":"12","num_nodes":"9","size_leaf_vector":"1"}},{"base_weights":[9.36867E-2,1.541659E-2,1.9580605E-2,2.2578648E-1,-1.5713704E-1,2.8616818E-2,-3.8152193E-3,9.848615E-3,-2.4647191E-2],"categories":[],"categories_nodes":[],"categories_segments":[],"categories_sizes":[],"default_left":[0,0,0,0,0,0,0,0,0],"id":78,"left_children":[1,3,-1,5,7,-1,-1,-1,-1],"loss_changes":[1.7892131E0,2.7533803E0,0E0,2.5056787E0,3.4583793E0,0E0,0E0,0E0,0E0],"parents":[2147483647,0,0,1,1,3,3,4,4],"right_children":[2,4,-1,6,8,-1,-1,-1,-1],"split_conditions":[8.4E1,1E0,1.9580605E-2,2.56E1,7.1E1,2.8616818E-2,-3.8152193E-3,9.848615E-3,-2.4647191E-2],"split_indices":[1,10,0,0,1,0,0,0,0],"split_type":[0,0,0,0,0,0,0,0,0],"sum_hessian":[9.770257E1,7.3873116E1,2.3829456E1,3.3149807E1,4.0723305E1,1.7417452E1,1.5732355E1,1.8107887E1,2.261542E1],"tree_param":{"num_deleted":"0","num_feature":"12","num_nodes":"9","size_leaf_vector":"1"}},{"base_weights":[2.6642163E-3,-5.7192966E-2,1.519596E-2,-2.525035E-1,5.6550913E-2,2.134123E-3,-2.7494436E-2,-1.0005608E-1,1.9107152E-2,3.411965E-3,-1.7097013E-2],"categories":[],"categories_nodes":[],"categories_segments":[],"categories_sizes":[],"default_left":[0,0,0,0,0,0,0,0,0,0,0],"id":79,"left_children":[1,3,-1,5,7,-1,-1,9,-1,-1,-1],"loss_changes":[1.4736855E0,1.7786038E0,0E0,1.7543309E0,2.1207297E0,0E0,0E0,9.615858E-1,0E0,0E0,0E0],"parents":[2147483647,0,0,1,1,3,3,4,4,7,7],"right_children":[2,4,-1,6,8,-1,-1,10,-1,-1,-1],"split_conditions":[1.71E2,9.5E1,1.519596E-2,7.12E1,2.81E1,2.134123E-3,-2.7494436E-2,2.44E1,1.9107152E-2,3.411965E-3,-1.7097013E-2],"split_indices":[4,5,0,1,0,0,0,0,0,0,0],"split_type":[0,0,0,0,0,0,0,0,0,0,0],"sum_hessian":[9.640189E1,7.841907E1,1.7982826E1,2.8412243E1,5.0006824E1,1.2163303E1,1.624894E1,3.1662516E1,1.8344307E1,1.7489403E1,1.4173112E1],"tree_param":{"num_deleted":"0","num_feature":"12","num_nodes":"11","size_leaf_vector":"1"}},{"base_weights":[-2.8722556E-3,6.0701784E-2,-1.8824944E-2,1.8366651E-1,-9.64416E-2,3.0754012E-1,-3.2074782E-3,-2.4913039E-2,5.7755993E-3,1.6251906E-3,3.2545827E-2],"categories":[],"categories_nodes":[],"categories_segments":[],"categories_sizes":[],"default_left":[0,0,0,0,0,0,0,0,0,0,0],"id":80,"left_children":[1,3,-1,5,7,9,-1,-1,-1,-1,-1],"loss_changes":[1.9474071E0,1.6008312E0,0E0,1.3762394E0,2.2844343E0,1.9931026E0,0E0,0E0,0E0,0E0,0E0],"parents":[2147483647,0,0,1,1,3,3,4,4,5,5],"right_children":[2,4,-1,6,8,10,-1,-1,-1,-1,-1],"split_conditions":[1.55E2,1.106E2,-1.8824944E-2,1.65E2,1.25E2,7.4E1,-3.2074782E-3,-2.4913039E-2,5.7755993E-3,1.6251906E-3,3.2545827E-2],"split_indices":[6,5,0,4,5,1,0,0,0,0,0],"split_type":[0,0,0,0,0,0,0,0,0,0,0],"sum_hessian":[9.669503E1,8.09288E1,1.5766222E1,4.530716E1,3.5621647E1,2.9562223E1,1.5744937E1,1.2994203E1,2.2627443E1,1.3959856E1,1.5602366E1],"tree_param":{"num_deleted":"0","num_feature":"12","num_nodes":"11","size_leaf_vector":"1"}},{"base_weights":[2.855075E-3,8.264177E-2,-2.2168005E-1,-6.746357E-2,2.864185E-1,-3.0566107E-2,5.801072E-3,5.4354176E-2,-2.0826675E-2,8.56106E-3,2.9221643E-2,-1.1524564E-2,1.7790599E-2],"categories":[],"categories_nodes":[],"categories_segments":[],"categories_sizes":[],"default_left":[0,0,0,0,0,0,0,0,0,0,0,0,0],"id":81,"left_children":[1,3,5,7,9,-1,-1,11,-1,-1,-1,-1,-1],"loss_changes":[1.8399173E0,2.3363762E0,2.5098424E0,1.5300198E0,8.609822E-1,0E0,0E0,1.9495832E0,0E0,0E0,0E0,0E0,0E0],"parents":[2147483647,0,0,1,1,2,2,3,3,4,4,7,7],"right_children":[2,4,6,8,10,-1,-1,12,-1,-1,-1,-1,-1],"split_conditions":[2.99E1,1E0,1.021E2,2.6E1,2.62E1,-3.0566107E-2,5.801072E-3,1.62E2,-2.0826675E-2,8.56106E-3,2.9221643E-2,-1.1524564E-2,1.7790599E-2],"split_indices":[0,3,5,0,0,0,0,4,0,0,0,0,0],"split_type":[0,0,0,0,0,0,0,0,0,0,0,0,0],"sum_hessian":[1.0068048E2,7.475046E1,2.5930017E1,4.342892E1,3.1321539E1,1.3316807E1,1.261321E1,3.0797653E1,1.2631269E1,1.9210838E1,1.21107E1,1.5362194E1,1.5435459E1],"tree_param":{"num_deleted":"0","num_feature":"12","num_nodes":"13","size_leaf_vector":"1"}},{"base_weights":[3.9916113E-3,-5.6742944E-2,1.8121561E-2,4.2842757E-2,-2.7962375E-1,-1.18446695E-2,2.0873868E-1,1.237894E-3,-3.460281E-2,-9.943306E-3,3.0409737E-2],"categories":[],"categories_nodes":[],"categories_segments":[],"categories_sizes":[],"default_left":[0,0,0,0,0,0,0,0,0,0,0],"id":82,"left_children":[1,3,-1,5,7,-1,9,-1,-1,-1,-1],"loss_changes":[1.8131001E0,1.8620363E0,0E0,2.3695297E0,2.3141193E0,0E0,3.9872026E0,0E0,0E0,0E0,0E0],"parents":[2147483647,0,0,1,1,3,3,4,4,6,6],"right_children":[2,4,-1,6,8,-1,10,-1,-1,-1,-1],"split_conditions":[5.7E1,4.7E1,1.8121561E-2,7.3E1,1.111E2,-1.18446695E-2,9.8E1,1.237894E-3,-3.460281E-2,-9.943306E-3,3.0409737E-2],"split_indices":[2,2,0,1,5,0,5,0,0,0,0],"split_type":[0,0,0,0,0,0,0,0,0,0,0],"sum_hessian":[9.834569E1,8.235186E1,1.5993823E1,5.747787E1,2.4873993E1,2.3414602E1,3.4063267E1,1.2818783E1,1.2055209E1,1.5280874E1,1.8782393E1],"tree_param":{"num_deleted":"0","num_feature":"12","num_nodes":"11","size_leaf_vector":"1"}},{"base_weights":[2.3097096E-2,-1.1317964E-1,1.0729621E-1,-1.5207496E-2,7.965929E-3,-1.1011654E-1,2.7896634E-1,-1.6032819E-2,3.7487294E-3,2.8233605E-2,5.1971787E-4],"categories":[],"categories_nodes":[],"categories_segments":[],"categories_sizes":[],"default_left":[0,0,0,0,0,0,0,0,0,0,0],"id":83,"left_children":[1,3,5,-1,-1,7,9,-1,-1,-1,-1],"loss_changes":[1.085596E0,1.2793255E0,2.2080894E0,0E0,0E0,7.321651E-1,1.6936691E0,0E0,0E0,0E0,0E0],"parents":[2147483647,0,0,1,1,2,2,5,5,6,6],"right_children":[2,4,6,-1,-1,8,10,-1,-1,-1,-1],"split_conditions":[4E0,8E1,6.6E1,-1.5207496E-2,7.965929E-3,7.4E1,2.98E1,-1.6032819E-2,3.7487294E-3,2.8233605E-2,5.1971787E-4],"split_indices":[11,9,9,0,0,1,0,0,0,0,0],"split_type":[0,0,0,0,0,0,0,0,0,0,0],"sum_hessian":[9.255208E1,3.521394E1,5.7338142E1,2.241783E1,1.2796109E1,2.5456785E1,3.1881357E1,1.305077E1,1.2406014E1,1.8248316E1,1.3633042E1],"tree_param":{"num_deleted":"0","num_feature":"12","num_nodes":"11","size_leaf_vector":"1"}},{"base_weights":[8.890636E-3,-7.721606E-2,1.6569725E-1,2.980339E-2,-2.394466E-2,1.9305587E-2,-1.6416151E-4,2.3041295E-2,-1.1917655E-1,-1.673663E-2,2.433984E-3],"categories":[],"categories_nodes":[],"categories_segments":[],"categories_sizes":[],"default_left":[0,0,0,0,0,0,0,0,0,0,0],"id":84,"left_children":[1,3,5,7,-1,-1,-1,-1,9,-1,-1],"loss_changes":[1.3103247E0,2.1688228E0,9.023161E-1,2.5741892E0,0E0,0E0,0E0,0E0,8.901827E-1,0E0,0E0],"parents":[2147483647,0,0,1,1,2,2,3,3,8,8],"right_children":[2,4,6,8,-1,-1,-1,-1,10,-1,-1],"split_conditions":[2.85E1,2.62E1,8E1,1.256E2,-2.394466E-2,1.9305587E-2,-1.6416151E-4,2.3041295E-2,2.36E1,-1.673663E-2,2.433984E-3],"split_indices":[0,0,9,6,0,0,0,0,0,0,0],"split_type":[0,0,0,0,0,0,0,0,0,0,0],"sum_hessian":[9.50984E1,6.1716045E1,3.3382355E1,4.6978657E1,1.473739E1,1.68769E1,1.6505455E1,1.3455445E1,3.352321E1,1.6403326E1,1.7119884E1],"tree_param":{"num_deleted":"0","num_feature":"12","num_nodes":"11","size_leaf_vector":"1"}},{"base_weights":[-1.2521509E-2,1.5515976E-1,-9.252075E-2,2.3747342E-2,-4.617444E-3,1.6181488E-2,-2.0655166E-1,-8.414617E-3,-2.4601841E-2,-1.15616275E-2,1.0244274E-2],"categories":[],"categories_nodes":[],"categories_segments":[],"categories_sizes":[],"default_left":[0,0,0,0,0,0,0,0,0,0,0],"id":85,"left_children":[1,3,5,-1,-1,-1,7,9,-1,-1,-1],"loss_changes":[1.2944123E0,1.7684624E0,2.747325E0,0E0,0E0,0E0,2.0139966E0,9.024171E-1,0E0,0E0,0E0],"parents":[2147483647,0,0,1,1,2,2,6,6,7,7],"right_children":[2,4,6,-1,-1,-1,8,10,-1,-1,-1],"split_conditions":[3.74E1,1.38E2,1.53E2,2.3747342E-2,-4.617444E-3,1.6181488E-2,1E0,4.8E1,-2.4601841E-2,-1.15616275E-2,1.0244274E-2],"split_indices":[2,6,4,0,0,0,10,2,0,0,0],"split_type":[0,0,0,0,0,0,0,0,0,0,0],"sum_hessian":[9.4424255E1,3.019498E1,6.422927E1,1.4492212E1,1.5702768E1,1.5063443E1,4.916583E1,2.540599E1,2.3759836E1,1.2487307E1,1.2918684E1],"tree_param":{"num_deleted":"0","num_feature":"12","num_nodes":"11","size_leaf_vector":"1"}},{"base_weights":[4.6343256E-2,1.7749625E-1,-9.080989E-2,3.833398E-1,-4.025819E-3,-2.2109315E-2,5.9610154E-2,2.9819524E-3,4.0676143E-2,-1.192691E-2,1.7483702E-2],"categories":[],"categories_nodes":[],"categories_segments":[],"categories_sizes":[],"default_left":[0,0,0,0,0,0,0,0,0,0,0],"id":86,"left_children":[1,3,5,7,-1,-1,9,-1,-1,-1,-1],"loss_changes":[1.792296E0,2.5831747E0,2.0622256E0,2.6853185E0,0E0,0E0,2.00404E0,0E0,0E0,0E0,0E0],"parents":[2147483647,0,0,1,1,2,2,3,3,6,6],"right_children":[2,4,6,8,-1,-1,10,-1,-1,-1,-1],"split_conditions":[7E1,1.38E2,1.6E2,7.3E1,-4.025819E-3,-2.2109315E-2,8E1,2.9819524E-3,4.0676143E-2,-1.192691E-2,1.7483702E-2],"split_indices":[9,6,4,1,0,0,9,0,0,0,0],"split_type":[0,0,0,0,0,0,0,0,0,0,0],"sum_hessian":[9.774211E1,4.9813602E1,4.7928513E1,2.673696E1,2.3076643E1,1.6349754E1,3.1578756E1,1.3064546E1,1.3672414E1,1.4994704E1,1.6584051E1],"tree_param":{"num_deleted":"0","num_feature":"12","num_nodes":"11","size_leaf_vector":"1"}},{"base_weights":[1.5776226E-2,2.2485724E-2,-4.1578185E-2,-1.22843534E-1,9.885788E-3,1.1973752E-2,-3.0323721E-2,1.8380807E-1,-1.2368074E-2,-1.4375596E-2,3.659223E-2],"categories":[],"categories_nodes":[],"categories_segments":[],"categories_sizes":[],"default_left":[0,0,0,0,0,0,0,0,0,0,0],"id":87,"left_children":[1,-1,3,5,-1,7,-1,9,-1,-1,-1],"loss_changes":[1.9905716E0,0E0,1.4223686E0,3.1266863E0,0E0,1.7512709E0,0E0,4.845354E0,0E0,0E0,0E0],"parents":[2147483647,0,0,2,2,3,3,5,5,7,7],"right_children":[2,-1,4,6,-1,8,-1,10,-1,-1,-1],"split_conditions":[6.9E1,2.2485724E-2,1.46E2,1.38E2,9.885788E-3,7E1,-3.0323721E-2,7.3E1,-1.2368074E-2,-1.4375596E-2,3.659223E-2],"split_indices":[5,0,6,6,0,9,0,1,0,0,0],"split_type":[0,0,0,0,0,0,0,0,0,0,0],"sum_hessian":[9.504847E1,1.2346335E1,8.270214E1,5.9607162E1,2.3094976E1,4.4771576E1,1.4835586E1,2.5116632E1,1.9654943E1,1.2810118E1,1.2306515E1],"tree_param":{"num_deleted":"0","num_feature":"12","num_nodes":"11","size_leaf_vector":"1"}},{"base_weights":[-7.8165114E-2,-1.576326E-1,1.1444464E-1,6.4449415E-2,-3.0205503E-1,-1.6723504E-2,2.8288692E-2,-7.2304043E-3,1.606416E-2,-3.200111E-2,-7.2789807E-3],"categories":[],"categories_nodes":[],"categories_segments":[],"categories_sizes":[],"default_left":[0,0,0,0,0,0,0,0,0,0,0],"id":88,"left_children":[1,3,5,7,9,-1,-1,-1,-1,-1,-1],"loss_changes":[1.470623E0,2.1877596E0,4.093355E0,1.0622576E0,1.6517768E0,0E0,0E0,0E0,0E0,0E0,0E0],"parents":[2147483647,0,0,1,1,2,2,3,3,4,4],"right_children":[2,4,6,8,10,-1,-1,-1,-1,-1,-1],"split_conditions":[1.225E2,8.5E1,1.36E2,3.9E1,1.021E2,-1.6723504E-2,2.8288692E-2,-7.2304043E-3,1.606416E-2,-3.200111E-2,-7.2789807E-3],"split_indices":[5,5,6,2,5,0,0,0,0,0,0],"split_type":[0,0,0,0,0,0,0,0,0,0,0],"sum_hessian":[9.39015E1,6.660359E1,2.7297909E1,2.6463596E1,4.0139996E1,1.30905E1,1.4207409E1,1.4064048E1,1.2399548E1,1.6789198E1,2.3350798E1],"tree_param":{"num_deleted":"0","num_feature":"12","num_nodes":"11","size_leaf_vector":"1"}},{"base_weights":[-2.3896595E-2,1.41529525E-2,-7.668448E-2,3.0629126E-2,-2.806501E-1,-1.3773713E-1,1.9806312E-2,-7.406634E-3,-2.604865E-2,-1.8053303E-2,8.620347E-3],"categories":[],"categories_nodes":[],"categories_segments":[],"categories_sizes":[],"default_left":[0,0,0,0,0,0,0,0,0,0,0],"id":89,"left_children":[1,-1,3,5,7,9,-1,-1,-1,-1,-1],"loss_changes":[1.350709E0,0E0,1.7946348E0,2.7830007E0,6.259835E-1,1.6677994E0,0E0,0E0,0E0,0E0,0E0],"parents":[2147483647,0,0,2,2,3,3,4,4,5,5],"right_children":[2,-1,4,6,8,10,-1,-1,-1,-1,-1],"split_conditions":[1.52E2,1.41529525E-2,1.173E2,9.5E1,4.7E1,1.67E2,1.9806312E-2,-7.406634E-3,-2.604865E-2,-1.8053303E-2,8.620347E-3],"split_indices":[4,0,5,5,2,4,0,0,0,0,0],"split_type":[0,0,0,0,0,0,0,0,0,0,0],"sum_hessian":[9.628975E1,1.569182E1,8.059793E1,5.336862E1,2.7229307E1,3.4490646E1,1.8877974E1,1.4311502E1,1.2917805E1,2.1802687E1,1.2687961E1],"tree_param":{"num_deleted":"0","num_feature":"12","num_nodes":"11","size_leaf_vector":"1"}},{"base_weights":[-3.9185457E-2,-8.772538E-2,1.1938284E-2,6.9246795E-3,-1.7686762E-1,-2.7880896E-2,-5.968403E-2,-1.1264489E-2,5.7746177E-3],"categories":[],"categories_nodes":[],"categories_segments":[],"categories_sizes":[],"default_left":[0,0,0,0,0,0,0,0,0],"id":90,"left_children":[1,3,-1,-1,5,-1,7,-1,-1],"loss_changes":[1.1069651E0,1.4508817E0,0E0,0E0,1.8345214E0,0E0,8.2346654E-1,0E0,0E0],"parents":[2147483647,0,0,1,1,4,4,6,6],"right_children":[2,4,-1,-1,6,-1,8,-1,-1],"split_conditions":[5E0,7.1E1,1.1938284E-2,6.9246795E-3,7.51E1,-2.7880896E-2,4E0,-1.1264489E-2,5.7746177E-3],"split_indices":[11,1,0,0,1,0,11,0,0],"split_type":[0,0,0,0,0,0,0,0,0],"sum_hessian":[9.334748E1,7.805366E1,1.529382E1,2.3727901E1,5.432576E1,1.4883519E1,3.9442238E1,2.1555126E1,1.7887114E1],"tree_param":{"num_deleted":"0","num_feature":"12","num_nodes":"9","size_leaf_vector":"1"}},{"base_weights":[-3.5552546E-2,3.228892E-2,-2.3398953E-2,-6.1555773E-2,2.357532E-2,1.911765E-2,-1.611144E-1,-2.5684988E-1,8.490117E-3,-1.22655205E-1,-2.7663812E-2,2.2643104E-3,-1.7645398E-2],"categories":[],"categories_nodes":[],"categories_segments":[],"categories_sizes":[],"default_left":[0,0,0,0,0,0,0,0,0,0,0,0,0],"id":91,"left_children":[1,3,-1,5,-1,-1,7,9,-1,11,-1,-1,-1],"loss_changes":[2.4256294E0,2.9054997E0,0E0,2.6411219E0,0E0,0E0,1.6268247E0,1.0934396E0,0E0,7.442193E-1,0E0,0E0,0E0],"parents":[2147483647,0,0,1,1,3,3,6,6,7,7,9,9],"right_children":[2,4,-1,6,-1,-1,8,10,-1,12,-1,-1,-1],"split_conditions":[1.55E2,1.44E2,-2.3398953E-2,2.26E1,2.357532E-2,1.911765E-2,8.2E1,1.106E2,8.490117E-3,1E0,-2.7663812E-2,2.2643104E-3,-1.7645398E-2],"split_indices":[6,6,0,0,0,0,9,5,0,3,0,0,0],"split_type":[0,0,0,0,0,0,0,0,0,0,0,0,0],"sum_hessian":[9.949332E1,8.425306E1,1.5240258E1,6.749465E1,1.6758406E1,1.3562271E1,5.393238E1,4.1079624E1,1.28527565E1,2.572777E1,1.5351855E1,1.3682488E1,1.2045282E1],"tree_param":{"num_deleted":"0","num_feature":"12","num_nodes":"13","size_leaf_vector":"1"}},{"base_weights":[6.809492E-2,1.1946105E-1,-1.4994745E-2,6.091786E-2,2.1732308E-2,-1.0001783E-2,1.7639424E-1,2.3431892E-2,-1.8431278E-3],"categories":[],"categories_nodes":[],"categories_segments":[],"categories_sizes":[],"default_left":[0,0,0,0,0,0,0,0,0],"id":92,"left_children":[1,3,-1,5,-1,-1,7,-1,-1],"loss_changes":[1.5705557E0,1.1403962E0,0E0,1.7941834E0,0E0,0E0,2.0053785E0,0E0,0E0],"parents":[2147483647,0,0,1,1,3,3,6,6],"right_children":[2,4,-1,6,-1,-1,8,-1,-1],"split_conditions":[8.7E1,5.7E1,-1.4994745E-2,1.28E2,2.1732308E-2,-1.0001783E-2,1.43E2,2.3431892E-2,-1.8431278E-3],"split_indices":[9,2,0,6,0,0,6,0,0],"split_type":[0,0,0,0,0,0,0,0,0],"sum_hessian":[9.341488E1,8.09505E1,1.2464375E1,6.6205284E1,1.474522E1,2.2147898E1,4.4057384E1,2.12495E1,2.2807882E1],"tree_param":{"num_deleted":"0","num_feature":"12","num_nodes":"9","size_leaf_vector":"1"}},{"base_weights":[-6.8927984E-5,-1.8207325E-2,6.002022E-2,1.87701E-2,-2.567279E-2,7.6970875E-2,-1.7640722E-1,-6.133551E-3,2.1435702E-2,-1.9707369E-2,-1.4018697E-3],"categories":[],"categories_nodes":[],"categories_segments":[],"categories_sizes":[],"default_left":[0,0,0,0,0,0,0,0,0,0,0],"id":93,"left_children":[1,-1,3,-1,5,7,9,-1,-1,-1,-1],"loss_changes":[1.8680863E0,0E0,1.8601034E0,0E0,1.0168638E0,2.0044575E0,6.091449E-1,0E0,0E0,0E0,0E0],"parents":[2147483647,0,0,2,2,4,4,5,5,6,6],"right_children":[2,-1,4,-1,6,8,10,-1,-1,-1,-1],"split_conditions":[5.7E1,-1.8207325E-2,3.6E1,1.87701E-2,8E1,1.399E2,4E0,-6.133551E-3,2.1435702E-2,-1.9707369E-2,-1.4018697E-3],"split_indices":[9,0,2,0,1,6,11,0,0,0,0],"split_type":[0,0,0,0,0,0,0,0,0,0,0],"sum_hessian":[1.00600716E2,1.5979248E1,8.462147E1,2.0775938E1,6.3845528E1,3.8272774E1,2.5572754E1,2.3725996E1,1.4546778E1,1.2272248E1,1.3300505E1],"tree_param":{"num_deleted":"0","num_feature":"12","num_nodes":"11","size_leaf_vector":"1"}},{"base_weights":[-6.71043E-2,-1.3307549E-1,1.5283806E-2,-2.979169E-1,-9.828467E-3,-2.6711791E-3,-2.9454961E-2,1.396931E-2,-2.2910492E-1,9.7360415E-4,-2.747842E-2],"categories":[],"categories_nodes":[],"categories_segments":[],"categories_sizes":[],"default_left":[0,0,0,0,0,0,0,0,0,0,0],"id":94,"left_children":[1,3,-1,5,7,-1,-1,-1,9,-1,-1],"loss_changes":[2.0718112E0,1.6300739E0,0E0,1.6532836E0,2.552436E0,0E0,0E0,0E0,1.4183031E0,0E0,0E0],"parents":[2147483647,0,0,1,1,3,3,4,4,8,8],"right_children":[2,4,-1,6,8,-1,-1,-1,10,-1,-1],"split_conditions":[5.7E1,7.3E1,1.5283806E-2,9.27E1,7E1,-2.6711791E-3,-2.9454961E-2,1.396931E-2,4.09E1,9.7360415E-4,-2.747842E-2],"split_indices":[2,1,0,5,9,0,0,0,2,0,0],"split_type":[0,0,0,0,0,0,0,0,0,0,0],"sum_hessian":[9.508077E1,7.937926E1,1.5701516E1,3.335291E1,4.602635E1,1.4923572E1,1.8429337E1,2.1833712E1,2.4192636E1,1.2109598E1,1.2083037E1],"tree_param":{"num_deleted":"0","num_feature":"12","num_nodes":"11","size_leaf_vector":"1"}},{"base_weights":[3.8580533E-2,2.3432612E-1,-5.597434E-2,-4.628823E-3,3.1996746E-2,-1.9855686E-2,3.622319E-2,3.383791E-2,-1.5475388E-1,-2.1668147E-2,2.7924262E-3],"categories":[],"categories_nodes":[],"categories_segments":[],"categories_sizes":[],"default_left":[0,0,0,0,0,0,0,0,0,0,0],"id":95,"left_children":[1,3,5,-1,-1,-1,7,-1,9,-1,-1],"loss_changes":[1.7577544E0,2.9105458E0,1.6411986E0,0E0,0E0,0E0,5.0277386E0,0E0,1.5423834E0,0E0,0E0],"parents":[2147483647,0,0,1,1,2,2,6,6,8,8],"right_children":[2,4,6,-1,-1,-1,8,-1,10,-1,-1],"split_conditions":[7.1E1,6.6E1,2.36E1,-4.628823E-3,3.1996746E-2,-1.9855686E-2,2.6E1,3.383791E-2,1.04E2,-2.1668147E-2,2.7924262E-3],"split_indices":[1,9,0,0,0,0,0,0,5,0,0],"split_type":[0,0,0,0,0,0,0,0,0,0,0],"sum_hessian":[9.326044E1,2.9894741E1,6.3365696E1,1.4989352E1,1.4905389E1,1.5280202E1,4.8085495E1,1.2271232E1,3.5814262E1,1.7309021E1,1.8505241E1],"tree_param":{"num_deleted":"0","num_feature":"12","num_nodes":"11","size_leaf_vector":"1"}},{"base_weights":[-1.032647E-1,-2.8226823E-2,-2.7351774E-2,1.376003E-1,-1.294307E-1,-8.548829E-3,3.168762E-2,3.5229214E-3,-2.323276E-2,1.1494253E-2,-1.8954994E-2],"categories":[],"categories_nodes":[],"categories_segments":[],"categories_sizes":[],"default_left":[0,0,0,0,0,0,0,0,0,0,0],"id":96,"left_children":[1,-1,3,5,7,-1,-1,9,-1,-1,-1],"loss_changes":[2.6705823E0,0E0,1.3807654E0,3.504621E0,1.7294891E0,0E0,0E0,2.1154654E0,0E0,0E0,0E0],"parents":[2147483647,0,0,2,2,3,3,4,4,7,7],"right_children":[2,-1,4,6,8,-1,-1,10,-1,-1,-1],"split_conditions":[5.7E1,-2.8226823E-2,2.6E1,6.8E1,1.65E2,-8.548829E-3,3.168762E-2,4.78E1,-2.323276E-2,1.1494253E-2,-1.8954994E-2],"split_indices":[9,0,0,9,4,0,0,2,0,0,0],"split_type":[0,0,0,0,0,0,0,0,0,0,0],"sum_hessian":[9.542454E1,1.5479934E1,7.99446E1,3.0427696E1,4.951691E1,1.8081333E1,1.2346363E1,3.329749E1,1.621942E1,2.1211466E1,1.2086024E1],"tree_param":{"num_deleted":"0","num_feature":"12","num_nodes":"11","size_leaf_vector":"1"}},{"base_weights":[-2.15769E-2,1.4458357E-1,-1.7603047E-1,-1.6157912E-2,2.5744108E-2,6.188022E-3,-3.240632E-1,-2.5166022E-2,1.7240858E-2,-3.5980605E-2,-7.3258816E-3],"categories":[],